digraph Tree {
node [shape=box] ;
0 [label="X[3] <= -28.0\nentropy = 2.359\nsamples = 1098\nvalue = [432, 304, 151, 80, 59, 13, 10, 3, 9, 2, 27, 7\n1]"] ;
1 [label="X[15] <= -29.0\nentropy = 2.087\nsamples = 923\nvalue = [362, 290, 149, 80, 20, 9, 5, 3, 2, 2, 0, 0, 1]"] ;
0 -> 1 [labeldistance=2.5, labelangle=45, headlabel="True"] ;
2 [label="X[0] <= -60.5\nentropy = 2.246\nsamples = 437\nvalue = [119, 120, 108, 72, 2, 5, 4, 3, 1, 2, 0, 0, 1]"] ;
1 -> 2 ;
3 [label="X[0] <= -80.5\nentropy = 2.045\nsamples = 359\nvalue = [116, 104, 80, 54, 2, 0, 2, 1, 0, 0, 0, 0, 0]"] ;
2 -> 3 ;
4 [label="X[15] <= -76.25\nentropy = 1.718\nsamples = 51\nvalue = [0, 18, 9, 22, 1, 0, 0, 1, 0, 0, 0, 0, 0]"] ;
3 -> 4 ;
5 [label="X[0] <= -86.0\nentropy = 1.597\nsamples = 36\nvalue = [0, 18, 6, 11, 1, 0, 0, 0, 0, 0, 0, 0, 0]"] ;
4 -> 5 ;
6 [label="entropy = 0.0\nsamples = 3\nvalue = [0, 0, 0, 3, 0, 0, 0, 0, 0, 0, 0, 0, 0]"] ;
5 -> 6 ;
7 [label="X[0] <= -81.25\nentropy = 1.573\nsamples = 33\nvalue = [0, 18, 6, 8, 1, 0, 0, 0, 0, 0, 0, 0, 0]"] ;
5 -> 7 ;
8 [label="entropy = 0.0\nsamples = 7\nvalue = [0, 7, 0, 0, 0, 0, 0, 0, 0, 0, 0, 0, 0]"] ;
7 -> 8 ;
9 [label="X[3] <= -65.0\nentropy = 1.717\nsamples = 26\nvalue = [0, 11, 6, 8, 1, 0, 0, 0, 0, 0, 0, 0, 0]"] ;
7 -> 9 ;
10 [label="X[12] <= -36.5\nentropy = 1.717\nsamples = 22\nvalue = [0, 10, 6, 5, 1, 0, 0, 0, 0, 0, 0, 0, 0]"] ;
9 -> 10 ;
11 [label="X[15] <= -77.75\nentropy = 2.0\nsamples = 4\nvalue = [0, 1, 1, 1, 1, 0, 0, 0, 0, 0, 0, 0, 0]"] ;
10 -> 11 ;
12 [label="X[12] <= -80.0\nentropy = 1.0\nsamples = 2\nvalue = [0, 1, 0, 1, 0, 0, 0, 0, 0, 0, 0, 0, 0]"] ;
11 -> 12 ;
13 [label="entropy = 0.0\nsamples = 1\nvalue = [0, 1, 0, 0, 0, 0, 0, 0, 0, 0, 0, 0, 0]"] ;
12 -> 13 ;
14 [label="entropy = 0.0\nsamples = 1\nvalue = [0, 0, 0, 1, 0, 0, 0, 0, 0, 0, 0, 0, 0]"] ;
12 -> 14 ;
15 [label="X[3] <= -77.0\nentropy = 1.0\nsamples = 2\nvalue = [0, 0, 1, 0, 1, 0, 0, 0, 0, 0, 0, 0, 0]"] ;
11 -> 15 ;
16 [label="entropy = 0.0\nsamples = 1\nvalue = [0, 0, 0, 0, 1, 0, 0, 0, 0, 0, 0, 0, 0]"] ;
15 -> 16 ;
17 [label="entropy = 0.0\nsamples = 1\nvalue = [0, 0, 1, 0, 0, 0, 0, 0, 0, 0, 0, 0, 0]"] ;
15 -> 17 ;
18 [label="X[3] <= -71.25\nentropy = 1.496\nsamples = 18\nvalue = [0, 9, 5, 4, 0, 0, 0, 0, 0, 0, 0, 0, 0]"] ;
10 -> 18 ;
19 [label="X[3] <= -76.375\nentropy = 1.468\nsamples = 17\nvalue = [0, 9, 4, 4, 0, 0, 0, 0, 0, 0, 0, 0, 0]"] ;
18 -> 19 ;
20 [label="X[3] <= -77.375\nentropy = 1.459\nsamples = 12\nvalue = [0, 6, 4, 2, 0, 0, 0, 0, 0, 0, 0, 0, 0]"] ;
19 -> 20 ;
21 [label="X[15] <= -79.5\nentropy = 1.224\nsamples = 9\nvalue = [0, 6, 2, 1, 0, 0, 0, 0, 0, 0, 0, 0, 0]"] ;
20 -> 21 ;
22 [label="entropy = 0.0\nsamples = 1\nvalue = [0, 0, 1, 0, 0, 0, 0, 0, 0, 0, 0, 0, 0]"] ;
21 -> 22 ;
23 [label="X[3] <= -79.25\nentropy = 1.061\nsamples = 8\nvalue = [0, 6, 1, 1, 0, 0, 0, 0, 0, 0, 0, 0, 0]"] ;
21 -> 23 ;
24 [label="X[3] <= -80.75\nentropy = 1.0\nsamples = 2\nvalue = [0, 1, 0, 1, 0, 0, 0, 0, 0, 0, 0, 0, 0]"] ;
23 -> 24 ;
25 [label="entropy = 0.0\nsamples = 1\nvalue = [0, 1, 0, 0, 0, 0, 0, 0, 0, 0, 0, 0, 0]"] ;
24 -> 25 ;
26 [label="entropy = 0.0\nsamples = 1\nvalue = [0, 0, 0, 1, 0, 0, 0, 0, 0, 0, 0, 0, 0]"] ;
24 -> 26 ;
27 [label="X[15] <= -77.5\nentropy = 0.65\nsamples = 6\nvalue = [0, 5, 1, 0, 0, 0, 0, 0, 0, 0, 0, 0, 0]"] ;
23 -> 27 ;
28 [label="entropy = 0.0\nsamples = 2\nvalue = [0, 2, 0, 0, 0, 0, 0, 0, 0, 0, 0, 0, 0]"] ;
27 -> 28 ;
29 [label="X[3] <= -78.5\nentropy = 0.811\nsamples = 4\nvalue = [0, 3, 1, 0, 0, 0, 0, 0, 0, 0, 0, 0, 0]"] ;
27 -> 29 ;
30 [label="entropy = 0.0\nsamples = 1\nvalue = [0, 1, 0, 0, 0, 0, 0, 0, 0, 0, 0, 0, 0]"] ;
29 -> 30 ;
31 [label="X[3] <= -77.875\nentropy = 0.918\nsamples = 3\nvalue = [0, 2, 1, 0, 0, 0, 0, 0, 0, 0, 0, 0, 0]"] ;
29 -> 31 ;
32 [label="entropy = 1.0\nsamples = 2\nvalue = [0, 1, 1, 0, 0, 0, 0, 0, 0, 0, 0, 0, 0]"] ;
31 -> 32 ;
33 [label="entropy = 0.0\nsamples = 1\nvalue = [0, 1, 0, 0, 0, 0, 0, 0, 0, 0, 0, 0, 0]"] ;
31 -> 33 ;
34 [label="X[15] <= -78.75\nentropy = 0.918\nsamples = 3\nvalue = [0, 0, 2, 1, 0, 0, 0, 0, 0, 0, 0, 0, 0]"] ;
20 -> 34 ;
35 [label="entropy = 0.0\nsamples = 1\nvalue = [0, 0, 0, 1, 0, 0, 0, 0, 0, 0, 0, 0, 0]"] ;
34 -> 35 ;
36 [label="entropy = 0.0\nsamples = 2\nvalue = [0, 0, 2, 0, 0, 0, 0, 0, 0, 0, 0, 0, 0]"] ;
34 -> 36 ;
37 [label="X[15] <= -77.5\nentropy = 0.971\nsamples = 5\nvalue = [0, 3, 0, 2, 0, 0, 0, 0, 0, 0, 0, 0, 0]"] ;
19 -> 37 ;
38 [label="entropy = 0.0\nsamples = 2\nvalue = [0, 2, 0, 0, 0, 0, 0, 0, 0, 0, 0, 0, 0]"] ;
37 -> 38 ;
39 [label="X[15] <= -76.75\nentropy = 0.918\nsamples = 3\nvalue = [0, 1, 0, 2, 0, 0, 0, 0, 0, 0, 0, 0, 0]"] ;
37 -> 39 ;
40 [label="entropy = 0.0\nsamples = 2\nvalue = [0, 0, 0, 2, 0, 0, 0, 0, 0, 0, 0, 0, 0]"] ;
39 -> 40 ;
41 [label="entropy = 0.0\nsamples = 1\nvalue = [0, 1, 0, 0, 0, 0, 0, 0, 0, 0, 0, 0, 0]"] ;
39 -> 41 ;
42 [label="entropy = 0.0\nsamples = 1\nvalue = [0, 0, 1, 0, 0, 0, 0, 0, 0, 0, 0, 0, 0]"] ;
18 -> 42 ;
43 [label="X[12] <= -37.5\nentropy = 0.811\nsamples = 4\nvalue = [0, 1, 0, 3, 0, 0, 0, 0, 0, 0, 0, 0, 0]"] ;
9 -> 43 ;
44 [label="entropy = 0.0\nsamples = 1\nvalue = [0, 1, 0, 0, 0, 0, 0, 0, 0, 0, 0, 0, 0]"] ;
43 -> 44 ;
45 [label="entropy = 0.0\nsamples = 3\nvalue = [0, 0, 0, 3, 0, 0, 0, 0, 0, 0, 0, 0, 0]"] ;
43 -> 45 ;
46 [label="X[15] <= -73.25\nentropy = 1.053\nsamples = 15\nvalue = [0, 0, 3, 11, 0, 0, 0, 1, 0, 0, 0, 0, 0]"] ;
4 -> 46 ;
47 [label="X[15] <= -73.75\nentropy = 0.619\nsamples = 13\nvalue = [0, 0, 2, 11, 0, 0, 0, 0, 0, 0, 0, 0, 0]"] ;
46 -> 47 ;
48 [label="X[3] <= -73.25\nentropy = 0.439\nsamples = 11\nvalue = [0, 0, 1, 10, 0, 0, 0, 0, 0, 0, 0, 0, 0]"] ;
47 -> 48 ;
49 [label="entropy = 0.0\nsamples = 8\nvalue = [0, 0, 0, 8, 0, 0, 0, 0, 0, 0, 0, 0, 0]"] ;
48 -> 49 ;
50 [label="X[3] <= -68.5\nentropy = 0.918\nsamples = 3\nvalue = [0, 0, 1, 2, 0, 0, 0, 0, 0, 0, 0, 0, 0]"] ;
48 -> 50 ;
51 [label="entropy = 0.0\nsamples = 1\nvalue = [0, 0, 1, 0, 0, 0, 0, 0, 0, 0, 0, 0, 0]"] ;
50 -> 51 ;
52 [label="entropy = 0.0\nsamples = 2\nvalue = [0, 0, 0, 2, 0, 0, 0, 0, 0, 0, 0, 0, 0]"] ;
50 -> 52 ;
53 [label="entropy = 1.0\nsamples = 2\nvalue = [0, 0, 1, 1, 0, 0, 0, 0, 0, 0, 0, 0, 0]"] ;
47 -> 53 ;
54 [label="X[15] <= -72.5\nentropy = 1.0\nsamples = 2\nvalue = [0, 0, 1, 0, 0, 0, 0, 1, 0, 0, 0, 0, 0]"] ;
46 -> 54 ;
55 [label="entropy = 0.0\nsamples = 1\nvalue = [0, 0, 1, 0, 0, 0, 0, 0, 0, 0, 0, 0, 0]"] ;
54 -> 55 ;
56 [label="entropy = 0.0\nsamples = 1\nvalue = [0, 0, 0, 0, 0, 0, 0, 1, 0, 0, 0, 0, 0]"] ;
54 -> 56 ;
57 [label="X[3] <= -78.25\nentropy = 1.946\nsamples = 308\nvalue = [116, 86, 71, 32, 1, 0, 2, 0, 0, 0, 0, 0, 0]"] ;
3 -> 57 ;
58 [label="X[15] <= -75.75\nentropy = 1.537\nsamples = 89\nvalue = [58, 13, 11, 5, 0, 0, 2, 0, 0, 0, 0, 0, 0]"] ;
57 -> 58 ;
59 [label="X[0] <= -69.75\nentropy = 1.372\nsamples = 80\nvalue = [55, 10, 10, 5, 0, 0, 0, 0, 0, 0, 0, 0, 0]"] ;
58 -> 59 ;
60 [label="X[12] <= -33.0\nentropy = 1.591\nsamples = 57\nvalue = [34, 10, 8, 5, 0, 0, 0, 0, 0, 0, 0, 0, 0]"] ;
59 -> 60 ;
61 [label="X[15] <= -78.5\nentropy = 0.946\nsamples = 11\nvalue = [7, 4, 0, 0, 0, 0, 0, 0, 0, 0, 0, 0, 0]"] ;
60 -> 61 ;
62 [label="X[12] <= -67.5\nentropy = 0.985\nsamples = 7\nvalue = [3, 4, 0, 0, 0, 0, 0, 0, 0, 0, 0, 0, 0]"] ;
61 -> 62 ;
63 [label="X[12] <= -79.5\nentropy = 0.918\nsamples = 6\nvalue = [2, 4, 0, 0, 0, 0, 0, 0, 0, 0, 0, 0, 0]"] ;
62 -> 63 ;
64 [label="entropy = 0.0\nsamples = 1\nvalue = [0, 1, 0, 0, 0, 0, 0, 0, 0, 0, 0, 0, 0]"] ;
63 -> 64 ;
65 [label="X[12] <= -77.5\nentropy = 0.971\nsamples = 5\nvalue = [2, 3, 0, 0, 0, 0, 0, 0, 0, 0, 0, 0, 0]"] ;
63 -> 65 ;
66 [label="entropy = 0.0\nsamples = 1\nvalue = [1, 0, 0, 0, 0, 0, 0, 0, 0, 0, 0, 0, 0]"] ;
65 -> 66 ;
67 [label="X[3] <= -80.5\nentropy = 0.811\nsamples = 4\nvalue = [1, 3, 0, 0, 0, 0, 0, 0, 0, 0, 0, 0, 0]"] ;
65 -> 67 ;
68 [label="X[12] <= -75.0\nentropy = 1.0\nsamples = 2\nvalue = [1, 1, 0, 0, 0, 0, 0, 0, 0, 0, 0, 0, 0]"] ;
67 -> 68 ;
69 [label="entropy = 0.0\nsamples = 1\nvalue = [0, 1, 0, 0, 0, 0, 0, 0, 0, 0, 0, 0, 0]"] ;
68 -> 69 ;
70 [label="entropy = 0.0\nsamples = 1\nvalue = [1, 0, 0, 0, 0, 0, 0, 0, 0, 0, 0, 0, 0]"] ;
68 -> 70 ;
71 [label="entropy = 0.0\nsamples = 2\nvalue = [0, 2, 0, 0, 0, 0, 0, 0, 0, 0, 0, 0, 0]"] ;
67 -> 71 ;
72 [label="entropy = 0.0\nsamples = 1\nvalue = [1, 0, 0, 0, 0, 0, 0, 0, 0, 0, 0, 0, 0]"] ;
62 -> 72 ;
73 [label="entropy = 0.0\nsamples = 4\nvalue = [4, 0, 0, 0, 0, 0, 0, 0, 0, 0, 0, 0, 0]"] ;
61 -> 73 ;
74 [label="X[15] <= -77.5\nentropy = 1.621\nsamples = 46\nvalue = [27, 6, 8, 5, 0, 0, 0, 0, 0, 0, 0, 0, 0]"] ;
60 -> 74 ;
75 [label="X[0] <= -74.5\nentropy = 1.499\nsamples = 42\nvalue = [27, 5, 6, 4, 0, 0, 0, 0, 0, 0, 0, 0, 0]"] ;
74 -> 75 ;
76 [label="X[0] <= -78.75\nentropy = 0.803\nsamples = 18\nvalue = [15, 2, 0, 1, 0, 0, 0, 0, 0, 0, 0, 0, 0]"] ;
75 -> 76 ;
77 [label="X[3] <= -80.0\nentropy = 1.0\nsamples = 2\nvalue = [0, 1, 0, 1, 0, 0, 0, 0, 0, 0, 0, 0, 0]"] ;
76 -> 77 ;
78 [label="entropy = 0.0\nsamples = 1\nvalue = [0, 0, 0, 1, 0, 0, 0, 0, 0, 0, 0, 0, 0]"] ;
77 -> 78 ;
79 [label="entropy = 0.0\nsamples = 1\nvalue = [0, 1, 0, 0, 0, 0, 0, 0, 0, 0, 0, 0, 0]"] ;
77 -> 79 ;
80 [label="X[3] <= -81.5\nentropy = 0.337\nsamples = 16\nvalue = [15, 1, 0, 0, 0, 0, 0, 0, 0, 0, 0, 0, 0]"] ;
76 -> 80 ;
81 [label="entropy = 0.0\nsamples = 1\nvalue = [0, 1, 0, 0, 0, 0, 0, 0, 0, 0, 0, 0, 0]"] ;
80 -> 81 ;
82 [label="entropy = 0.0\nsamples = 15\nvalue = [15, 0, 0, 0, 0, 0, 0, 0, 0, 0, 0, 0, 0]"] ;
80 -> 82 ;
83 [label="X[15] <= -79.5\nentropy = 1.75\nsamples = 24\nvalue = [12, 3, 6, 3, 0, 0, 0, 0, 0, 0, 0, 0, 0]"] ;
75 -> 83 ;
84 [label="X[3] <= -79.5\nentropy = 1.764\nsamples = 16\nvalue = [6, 3, 6, 1, 0, 0, 0, 0, 0, 0, 0, 0, 0]"] ;
83 -> 84 ;
85 [label="X[0] <= -70.75\nentropy = 1.75\nsamples = 8\nvalue = [1, 2, 4, 1, 0, 0, 0, 0, 0, 0, 0, 0, 0]"] ;
84 -> 85 ;
86 [label="X[0] <= -72.5\nentropy = 1.379\nsamples = 7\nvalue = [0, 2, 4, 1, 0, 0, 0, 0, 0, 0, 0, 0, 0]"] ;
85 -> 86 ;
87 [label="entropy = 1.0\nsamples = 2\nvalue = [0, 0, 1, 1, 0, 0, 0, 0, 0, 0, 0, 0, 0]"] ;
86 -> 87 ;
88 [label="X[15] <= -80.5\nentropy = 0.971\nsamples = 5\nvalue = [0, 2, 3, 0, 0, 0, 0, 0, 0, 0, 0, 0, 0]"] ;
86 -> 88 ;
89 [label="entropy = 0.0\nsamples = 1\nvalue = [0, 1, 0, 0, 0, 0, 0, 0, 0, 0, 0, 0, 0]"] ;
88 -> 89 ;
90 [label="X[0] <= -71.5\nentropy = 0.811\nsamples = 4\nvalue = [0, 1, 3, 0, 0, 0, 0, 0, 0, 0, 0, 0, 0]"] ;
88 -> 90 ;
91 [label="entropy = 0.0\nsamples = 1\nvalue = [0, 1, 0, 0, 0, 0, 0, 0, 0, 0, 0, 0, 0]"] ;
90 -> 91 ;
92 [label="entropy = 0.0\nsamples = 3\nvalue = [0, 0, 3, 0, 0, 0, 0, 0, 0, 0, 0, 0, 0]"] ;
90 -> 92 ;
93 [label="entropy = 0.0\nsamples = 1\nvalue = [1, 0, 0, 0, 0, 0, 0, 0, 0, 0, 0, 0, 0]"] ;
85 -> 93 ;
94 [label="X[0] <= -73.75\nentropy = 1.299\nsamples = 8\nvalue = [5, 1, 2, 0, 0, 0, 0, 0, 0, 0, 0, 0, 0]"] ;
84 -> 94 ;
95 [label="entropy = 1.0\nsamples = 2\nvalue = [0, 1, 1, 0, 0, 0, 0, 0, 0, 0, 0, 0, 0]"] ;
94 -> 95 ;
96 [label="X[3] <= -78.875\nentropy = 0.65\nsamples = 6\nvalue = [5, 0, 1, 0, 0, 0, 0, 0, 0, 0, 0, 0, 0]"] ;
94 -> 96 ;
97 [label="entropy = 0.0\nsamples = 4\nvalue = [4, 0, 0, 0, 0, 0, 0, 0, 0, 0, 0, 0, 0]"] ;
96 -> 97 ;
98 [label="X[15] <= -80.75\nentropy = 1.0\nsamples = 2\nvalue = [1, 0, 1, 0, 0, 0, 0, 0, 0, 0, 0, 0, 0]"] ;
96 -> 98 ;
99 [label="entropy = 0.0\nsamples = 1\nvalue = [1, 0, 0, 0, 0, 0, 0, 0, 0, 0, 0, 0, 0]"] ;
98 -> 99 ;
100 [label="entropy = 0.0\nsamples = 1\nvalue = [0, 0, 1, 0, 0, 0, 0, 0, 0, 0, 0, 0, 0]"] ;
98 -> 100 ;
101 [label="X[0] <= -70.5\nentropy = 0.811\nsamples = 8\nvalue = [6, 0, 0, 2, 0, 0, 0, 0, 0, 0, 0, 0, 0]"] ;
83 -> 101 ;
102 [label="X[3] <= -79.5\nentropy = 0.592\nsamples = 7\nvalue = [6, 0, 0, 1, 0, 0, 0, 0, 0, 0, 0, 0, 0]"] ;
101 -> 102 ;
103 [label="entropy = 0.0\nsamples = 4\nvalue = [4, 0, 0, 0, 0, 0, 0, 0, 0, 0, 0, 0, 0]"] ;
102 -> 103 ;
104 [label="X[3] <= -78.75\nentropy = 0.918\nsamples = 3\nvalue = [2, 0, 0, 1, 0, 0, 0, 0, 0, 0, 0, 0, 0]"] ;
102 -> 104 ;
105 [label="entropy = 0.0\nsamples = 1\nvalue = [0, 0, 0, 1, 0, 0, 0, 0, 0, 0, 0, 0, 0]"] ;
104 -> 105 ;
106 [label="entropy = 0.0\nsamples = 2\nvalue = [2, 0, 0, 0, 0, 0, 0, 0, 0, 0, 0, 0, 0]"] ;
104 -> 106 ;
107 [label="entropy = 0.0\nsamples = 1\nvalue = [0, 0, 0, 1, 0, 0, 0, 0, 0, 0, 0, 0, 0]"] ;
101 -> 107 ;
108 [label="X[15] <= -76.5\nentropy = 1.5\nsamples = 4\nvalue = [0, 1, 2, 1, 0, 0, 0, 0, 0, 0, 0, 0, 0]"] ;
74 -> 108 ;
109 [label="entropy = 0.0\nsamples = 2\nvalue = [0, 0, 2, 0, 0, 0, 0, 0, 0, 0, 0, 0, 0]"] ;
108 -> 109 ;
110 [label="X[0] <= -71.5\nentropy = 1.0\nsamples = 2\nvalue = [0, 1, 0, 1, 0, 0, 0, 0, 0, 0, 0, 0, 0]"] ;
108 -> 110 ;
111 [label="entropy = 0.0\nsamples = 1\nvalue = [0, 1, 0, 0, 0, 0, 0, 0, 0, 0, 0, 0, 0]"] ;
110 -> 111 ;
112 [label="entropy = 0.0\nsamples = 1\nvalue = [0, 0, 0, 1, 0, 0, 0, 0, 0, 0, 0, 0, 0]"] ;
110 -> 112 ;
113 [label="X[3] <= -78.75\nentropy = 0.426\nsamples = 23\nvalue = [21, 0, 2, 0, 0, 0, 0, 0, 0, 0, 0, 0, 0]"] ;
59 -> 113 ;
114 [label="entropy = 0.0\nsamples = 21\nvalue = [21, 0, 0, 0, 0, 0, 0, 0, 0, 0, 0, 0, 0]"] ;
113 -> 114 ;
115 [label="entropy = 0.0\nsamples = 2\nvalue = [0, 0, 2, 0, 0, 0, 0, 0, 0, 0, 0, 0, 0]"] ;
113 -> 115 ;
116 [label="X[15] <= -74.5\nentropy = 1.891\nsamples = 9\nvalue = [3, 3, 1, 0, 0, 0, 2, 0, 0, 0, 0, 0, 0]"] ;
58 -> 116 ;
117 [label="X[15] <= -75.25\nentropy = 0.918\nsamples = 3\nvalue = [2, 0, 0, 0, 0, 0, 1, 0, 0, 0, 0, 0, 0]"] ;
116 -> 117 ;
118 [label="entropy = 0.0\nsamples = 1\nvalue = [0, 0, 0, 0, 0, 0, 1, 0, 0, 0, 0, 0, 0]"] ;
117 -> 118 ;
119 [label="entropy = 0.0\nsamples = 2\nvalue = [2, 0, 0, 0, 0, 0, 0, 0, 0, 0, 0, 0, 0]"] ;
117 -> 119 ;
120 [label="X[15] <= -70.0\nentropy = 1.792\nsamples = 6\nvalue = [1, 3, 1, 0, 0, 0, 1, 0, 0, 0, 0, 0, 0]"] ;
116 -> 120 ;
121 [label="X[0] <= -75.5\nentropy = 0.918\nsamples = 3\nvalue = [1, 2, 0, 0, 0, 0, 0, 0, 0, 0, 0, 0, 0]"] ;
120 -> 121 ;
122 [label="entropy = 0.0\nsamples = 2\nvalue = [0, 2, 0, 0, 0, 0, 0, 0, 0, 0, 0, 0, 0]"] ;
121 -> 122 ;
123 [label="entropy = 0.0\nsamples = 1\nvalue = [1, 0, 0, 0, 0, 0, 0, 0, 0, 0, 0, 0, 0]"] ;
121 -> 123 ;
124 [label="X[3] <= -79.5\nentropy = 1.585\nsamples = 3\nvalue = [0, 1, 1, 0, 0, 0, 1, 0, 0, 0, 0, 0, 0]"] ;
120 -> 124 ;
125 [label="entropy = 0.0\nsamples = 1\nvalue = [0, 1, 0, 0, 0, 0, 0, 0, 0, 0, 0, 0, 0]"] ;
124 -> 125 ;
126 [label="X[0] <= -74.0\nentropy = 1.0\nsamples = 2\nvalue = [0, 0, 1, 0, 0, 0, 1, 0, 0, 0, 0, 0, 0]"] ;
124 -> 126 ;
127 [label="entropy = 0.0\nsamples = 1\nvalue = [0, 0, 0, 0, 0, 0, 1, 0, 0, 0, 0, 0, 0]"] ;
126 -> 127 ;
128 [label="entropy = 0.0\nsamples = 1\nvalue = [0, 0, 1, 0, 0, 0, 0, 0, 0, 0, 0, 0, 0]"] ;
126 -> 128 ;
129 [label="X[3] <= -73.75\nentropy = 1.956\nsamples = 219\nvalue = [58, 73, 60, 27, 1, 0, 0, 0, 0, 0, 0, 0, 0]"] ;
57 -> 129 ;
130 [label="X[15] <= -79.5\nentropy = 1.809\nsamples = 106\nvalue = [33, 43, 24, 5, 1, 0, 0, 0, 0, 0, 0, 0, 0]"] ;
129 -> 130 ;
131 [label="X[3] <= -77.25\nentropy = 1.846\nsamples = 39\nvalue = [18, 9, 9, 2, 1, 0, 0, 0, 0, 0, 0, 0, 0]"] ;
130 -> 131 ;
132 [label="X[12] <= -78.0\nentropy = 1.157\nsamples = 10\nvalue = [7, 0, 2, 0, 1, 0, 0, 0, 0, 0, 0, 0, 0]"] ;
131 -> 132 ;
133 [label="entropy = 0.0\nsamples = 1\nvalue = [0, 0, 0, 0, 1, 0, 0, 0, 0, 0, 0, 0, 0]"] ;
132 -> 133 ;
134 [label="X[0] <= -74.25\nentropy = 0.764\nsamples = 9\nvalue = [7, 0, 2, 0, 0, 0, 0, 0, 0, 0, 0, 0, 0]"] ;
132 -> 134 ;
135 [label="X[0] <= -74.75\nentropy = 0.918\nsamples = 6\nvalue = [4, 0, 2, 0, 0, 0, 0, 0, 0, 0, 0, 0, 0]"] ;
134 -> 135 ;
136 [label="X[3] <= -77.75\nentropy = 0.722\nsamples = 5\nvalue = [4, 0, 1, 0, 0, 0, 0, 0, 0, 0, 0, 0, 0]"] ;
135 -> 136 ;
137 [label="entropy = 0.0\nsamples = 3\nvalue = [3, 0, 0, 0, 0, 0, 0, 0, 0, 0, 0, 0, 0]"] ;
136 -> 137 ;
138 [label="X[15] <= -80.5\nentropy = 1.0\nsamples = 2\nvalue = [1, 0, 1, 0, 0, 0, 0, 0, 0, 0, 0, 0, 0]"] ;
136 -> 138 ;
139 [label="entropy = 0.0\nsamples = 1\nvalue = [1, 0, 0, 0, 0, 0, 0, 0, 0, 0, 0, 0, 0]"] ;
138 -> 139 ;
140 [label="entropy = 0.0\nsamples = 1\nvalue = [0, 0, 1, 0, 0, 0, 0, 0, 0, 0, 0, 0, 0]"] ;
138 -> 140 ;
141 [label="entropy = 0.0\nsamples = 1\nvalue = [0, 0, 1, 0, 0, 0, 0, 0, 0, 0, 0, 0, 0]"] ;
135 -> 141 ;
142 [label="entropy = 0.0\nsamples = 3\nvalue = [3, 0, 0, 0, 0, 0, 0, 0, 0, 0, 0, 0, 0]"] ;
134 -> 142 ;
143 [label="X[15] <= -80.25\nentropy = 1.815\nsamples = 29\nvalue = [11, 9, 7, 2, 0, 0, 0, 0, 0, 0, 0, 0, 0]"] ;
131 -> 143 ;
144 [label="X[12] <= -38.0\nentropy = 1.349\nsamples = 11\nvalue = [1, 5, 5, 0, 0, 0, 0, 0, 0, 0, 0, 0, 0]"] ;
143 -> 144 ;
145 [label="X[0] <= -75.0\nentropy = 0.811\nsamples = 4\nvalue = [1, 0, 3, 0, 0, 0, 0, 0, 0, 0, 0, 0, 0]"] ;
144 -> 145 ;
146 [label="entropy = 0.0\nsamples = 1\nvalue = [1, 0, 0, 0, 0, 0, 0, 0, 0, 0, 0, 0, 0]"] ;
145 -> 146 ;
147 [label="entropy = 0.0\nsamples = 3\nvalue = [0, 0, 3, 0, 0, 0, 0, 0, 0, 0, 0, 0, 0]"] ;
145 -> 147 ;
148 [label="X[0] <= -78.5\nentropy = 0.863\nsamples = 7\nvalue = [0, 5, 2, 0, 0, 0, 0, 0, 0, 0, 0, 0, 0]"] ;
144 -> 148 ;
149 [label="entropy = 0.0\nsamples = 2\nvalue = [0, 2, 0, 0, 0, 0, 0, 0, 0, 0, 0, 0, 0]"] ;
148 -> 149 ;
150 [label="X[0] <= -76.0\nentropy = 0.971\nsamples = 5\nvalue = [0, 3, 2, 0, 0, 0, 0, 0, 0, 0, 0, 0, 0]"] ;
148 -> 150 ;
151 [label="entropy = 0.0\nsamples = 1\nvalue = [0, 0, 1, 0, 0, 0, 0, 0, 0, 0, 0, 0, 0]"] ;
150 -> 151 ;
152 [label="X[0] <= -73.0\nentropy = 0.811\nsamples = 4\nvalue = [0, 3, 1, 0, 0, 0, 0, 0, 0, 0, 0, 0, 0]"] ;
150 -> 152 ;
153 [label="entropy = 0.0\nsamples = 2\nvalue = [0, 2, 0, 0, 0, 0, 0, 0, 0, 0, 0, 0, 0]"] ;
152 -> 153 ;
154 [label="X[3] <= -75.25\nentropy = 1.0\nsamples = 2\nvalue = [0, 1, 1, 0, 0, 0, 0, 0, 0, 0, 0, 0, 0]"] ;
152 -> 154 ;
155 [label="entropy = 0.0\nsamples = 1\nvalue = [0, 0, 1, 0, 0, 0, 0, 0, 0, 0, 0, 0, 0]"] ;
154 -> 155 ;
156 [label="entropy = 0.0\nsamples = 1\nvalue = [0, 1, 0, 0, 0, 0, 0, 0, 0, 0, 0, 0, 0]"] ;
154 -> 156 ;
157 [label="X[0] <= -73.75\nentropy = 1.658\nsamples = 18\nvalue = [10, 4, 2, 2, 0, 0, 0, 0, 0, 0, 0, 0, 0]"] ;
143 -> 157 ;
158 [label="X[0] <= -77.5\nentropy = 1.224\nsamples = 9\nvalue = [6, 1, 0, 2, 0, 0, 0, 0, 0, 0, 0, 0, 0]"] ;
157 -> 158 ;
159 [label="entropy = 0.0\nsamples = 4\nvalue = [4, 0, 0, 0, 0, 0, 0, 0, 0, 0, 0, 0, 0]"] ;
158 -> 159 ;
160 [label="X[3] <= -75.5\nentropy = 1.522\nsamples = 5\nvalue = [2, 1, 0, 2, 0, 0, 0, 0, 0, 0, 0, 0, 0]"] ;
158 -> 160 ;
161 [label="X[3] <= -76.5\nentropy = 0.918\nsamples = 3\nvalue = [2, 0, 0, 1, 0, 0, 0, 0, 0, 0, 0, 0, 0]"] ;
160 -> 161 ;
162 [label="entropy = 0.0\nsamples = 1\nvalue = [0, 0, 0, 1, 0, 0, 0, 0, 0, 0, 0, 0, 0]"] ;
161 -> 162 ;
163 [label="entropy = 0.0\nsamples = 2\nvalue = [2, 0, 0, 0, 0, 0, 0, 0, 0, 0, 0, 0, 0]"] ;
161 -> 163 ;
164 [label="X[0] <= -76.75\nentropy = 1.0\nsamples = 2\nvalue = [0, 1, 0, 1, 0, 0, 0, 0, 0, 0, 0, 0, 0]"] ;
160 -> 164 ;
165 [label="entropy = 0.0\nsamples = 1\nvalue = [0, 0, 0, 1, 0, 0, 0, 0, 0, 0, 0, 0, 0]"] ;
164 -> 165 ;
166 [label="entropy = 0.0\nsamples = 1\nvalue = [0, 1, 0, 0, 0, 0, 0, 0, 0, 0, 0, 0, 0]"] ;
164 -> 166 ;
167 [label="X[3] <= -76.5\nentropy = 1.53\nsamples = 9\nvalue = [4, 3, 2, 0, 0, 0, 0, 0, 0, 0, 0, 0, 0]"] ;
157 -> 167 ;
168 [label="X[0] <= -68.0\nentropy = 1.0\nsamples = 2\nvalue = [0, 1, 1, 0, 0, 0, 0, 0, 0, 0, 0, 0, 0]"] ;
167 -> 168 ;
169 [label="entropy = 0.0\nsamples = 1\nvalue = [0, 1, 0, 0, 0, 0, 0, 0, 0, 0, 0, 0, 0]"] ;
168 -> 169 ;
170 [label="entropy = 0.0\nsamples = 1\nvalue = [0, 0, 1, 0, 0, 0, 0, 0, 0, 0, 0, 0, 0]"] ;
168 -> 170 ;
171 [label="X[12] <= -39.0\nentropy = 1.379\nsamples = 7\nvalue = [4, 2, 1, 0, 0, 0, 0, 0, 0, 0, 0, 0, 0]"] ;
167 -> 171 ;
172 [label="entropy = 0.0\nsamples = 1\nvalue = [0, 1, 0, 0, 0, 0, 0, 0, 0, 0, 0, 0, 0]"] ;
171 -> 172 ;
173 [label="X[3] <= -75.75\nentropy = 1.252\nsamples = 6\nvalue = [4, 1, 1, 0, 0, 0, 0, 0, 0, 0, 0, 0, 0]"] ;
171 -> 173 ;
174 [label="X[0] <= -71.0\nentropy = 1.0\nsamples = 2\nvalue = [1, 1, 0, 0, 0, 0, 0, 0, 0, 0, 0, 0, 0]"] ;
173 -> 174 ;
175 [label="entropy = 0.0\nsamples = 1\nvalue = [1, 0, 0, 0, 0, 0, 0, 0, 0, 0, 0, 0, 0]"] ;
174 -> 175 ;
176 [label="entropy = 0.0\nsamples = 1\nvalue = [0, 1, 0, 0, 0, 0, 0, 0, 0, 0, 0, 0, 0]"] ;
174 -> 176 ;
177 [label="X[0] <= -72.75\nentropy = 0.811\nsamples = 4\nvalue = [3, 0, 1, 0, 0, 0, 0, 0, 0, 0, 0, 0, 0]"] ;
173 -> 177 ;
178 [label="entropy = 0.0\nsamples = 1\nvalue = [1, 0, 0, 0, 0, 0, 0, 0, 0, 0, 0, 0, 0]"] ;
177 -> 178 ;
179 [label="X[0] <= -69.25\nentropy = 0.918\nsamples = 3\nvalue = [2, 0, 1, 0, 0, 0, 0, 0, 0, 0, 0, 0, 0]"] ;
177 -> 179 ;
180 [label="entropy = 1.0\nsamples = 2\nvalue = [1, 0, 1, 0, 0, 0, 0, 0, 0, 0, 0, 0, 0]"] ;
179 -> 180 ;
181 [label="entropy = 0.0\nsamples = 1\nvalue = [1, 0, 0, 0, 0, 0, 0, 0, 0, 0, 0, 0, 0]"] ;
179 -> 181 ;
182 [label="X[0] <= -77.75\nentropy = 1.664\nsamples = 67\nvalue = [15, 34, 15, 3, 0, 0, 0, 0, 0, 0, 0, 0, 0]"] ;
130 -> 182 ;
183 [label="X[3] <= -75.5\nentropy = 1.816\nsamples = 18\nvalue = [2, 8, 5, 3, 0, 0, 0, 0, 0, 0, 0, 0, 0]"] ;
182 -> 183 ;
184 [label="X[15] <= -75.75\nentropy = 1.834\nsamples = 13\nvalue = [2, 6, 2, 3, 0, 0, 0, 0, 0, 0, 0, 0, 0]"] ;
183 -> 184 ;
185 [label="X[15] <= -77.0\nentropy = 1.571\nsamples = 10\nvalue = [2, 6, 1, 1, 0, 0, 0, 0, 0, 0, 0, 0, 0]"] ;
184 -> 185 ;
186 [label="X[3] <= -77.75\nentropy = 1.379\nsamples = 7\nvalue = [2, 4, 0, 1, 0, 0, 0, 0, 0, 0, 0, 0, 0]"] ;
185 -> 186 ;
187 [label="entropy = 0.0\nsamples = 1\nvalue = [1, 0, 0, 0, 0, 0, 0, 0, 0, 0, 0, 0, 0]"] ;
186 -> 187 ;
188 [label="X[15] <= -77.75\nentropy = 1.252\nsamples = 6\nvalue = [1, 4, 0, 1, 0, 0, 0, 0, 0, 0, 0, 0, 0]"] ;
186 -> 188 ;
189 [label="X[15] <= -78.5\nentropy = 0.722\nsamples = 5\nvalue = [0, 4, 0, 1, 0, 0, 0, 0, 0, 0, 0, 0, 0]"] ;
188 -> 189 ;
190 [label="X[3] <= -77.25\nentropy = 0.918\nsamples = 3\nvalue = [0, 2, 0, 1, 0, 0, 0, 0, 0, 0, 0, 0, 0]"] ;
189 -> 190 ;
191 [label="entropy = 0.0\nsamples = 1\nvalue = [0, 1, 0, 0, 0, 0, 0, 0, 0, 0, 0, 0, 0]"] ;
190 -> 191 ;
192 [label="X[12] <= -39.0\nentropy = 1.0\nsamples = 2\nvalue = [0, 1, 0, 1, 0, 0, 0, 0, 0, 0, 0, 0, 0]"] ;
190 -> 192 ;
193 [label="entropy = 0.0\nsamples = 1\nvalue = [0, 1, 0, 0, 0, 0, 0, 0, 0, 0, 0, 0, 0]"] ;
192 -> 193 ;
194 [label="entropy = 0.0\nsamples = 1\nvalue = [0, 0, 0, 1, 0, 0, 0, 0, 0, 0, 0, 0, 0]"] ;
192 -> 194 ;
195 [label="entropy = 0.0\nsamples = 2\nvalue = [0, 2, 0, 0, 0, 0, 0, 0, 0, 0, 0, 0, 0]"] ;
189 -> 195 ;
196 [label="entropy = 0.0\nsamples = 1\nvalue = [1, 0, 0, 0, 0, 0, 0, 0, 0, 0, 0, 0, 0]"] ;
188 -> 196 ;
197 [label="X[0] <= -78.5\nentropy = 0.918\nsamples = 3\nvalue = [0, 2, 1, 0, 0, 0, 0, 0, 0, 0, 0, 0, 0]"] ;
185 -> 197 ;
198 [label="entropy = 0.0\nsamples = 1\nvalue = [0, 1, 0, 0, 0, 0, 0, 0, 0, 0, 0, 0, 0]"] ;
197 -> 198 ;
199 [label="entropy = 1.0\nsamples = 2\nvalue = [0, 1, 1, 0, 0, 0, 0, 0, 0, 0, 0, 0, 0]"] ;
197 -> 199 ;
200 [label="X[15] <= -72.0\nentropy = 0.918\nsamples = 3\nvalue = [0, 0, 1, 2, 0, 0, 0, 0, 0, 0, 0, 0, 0]"] ;
184 -> 200 ;
201 [label="entropy = 0.0\nsamples = 2\nvalue = [0, 0, 0, 2, 0, 0, 0, 0, 0, 0, 0, 0, 0]"] ;
200 -> 201 ;
202 [label="entropy = 0.0\nsamples = 1\nvalue = [0, 0, 1, 0, 0, 0, 0, 0, 0, 0, 0, 0, 0]"] ;
200 -> 202 ;
203 [label="X[15] <= -75.5\nentropy = 0.971\nsamples = 5\nvalue = [0, 2, 3, 0, 0, 0, 0, 0, 0, 0, 0, 0, 0]"] ;
183 -> 203 ;
204 [label="entropy = 0.0\nsamples = 3\nvalue = [0, 0, 3, 0, 0, 0, 0, 0, 0, 0, 0, 0, 0]"] ;
203 -> 204 ;
205 [label="entropy = 0.0\nsamples = 2\nvalue = [0, 2, 0, 0, 0, 0, 0, 0, 0, 0, 0, 0, 0]"] ;
203 -> 205 ;
206 [label="X[3] <= -74.75\nentropy = 1.461\nsamples = 49\nvalue = [13, 26, 10, 0, 0, 0, 0, 0, 0, 0, 0, 0, 0]"] ;
182 -> 206 ;
207 [label="X[0] <= -76.5\nentropy = 1.459\nsamples = 41\nvalue = [9, 22, 10, 0, 0, 0, 0, 0, 0, 0, 0, 0, 0]"] ;
206 -> 207 ;
208 [label="X[15] <= -75.0\nentropy = 0.954\nsamples = 8\nvalue = [0, 5, 3, 0, 0, 0, 0, 0, 0, 0, 0, 0, 0]"] ;
207 -> 208 ;
209 [label="X[3] <= -77.25\nentropy = 0.65\nsamples = 6\nvalue = [0, 5, 1, 0, 0, 0, 0, 0, 0, 0, 0, 0, 0]"] ;
208 -> 209 ;
210 [label="entropy = 0.0\nsamples = 2\nvalue = [0, 2, 0, 0, 0, 0, 0, 0, 0, 0, 0, 0, 0]"] ;
209 -> 210 ;
211 [label="X[3] <= -76.5\nentropy = 0.811\nsamples = 4\nvalue = [0, 3, 1, 0, 0, 0, 0, 0, 0, 0, 0, 0, 0]"] ;
209 -> 211 ;
212 [label="X[0] <= -77.25\nentropy = 1.0\nsamples = 2\nvalue = [0, 1, 1, 0, 0, 0, 0, 0, 0, 0, 0, 0, 0]"] ;
211 -> 212 ;
213 [label="entropy = 0.0\nsamples = 1\nvalue = [0, 1, 0, 0, 0, 0, 0, 0, 0, 0, 0, 0, 0]"] ;
212 -> 213 ;
214 [label="entropy = 0.0\nsamples = 1\nvalue = [0, 0, 1, 0, 0, 0, 0, 0, 0, 0, 0, 0, 0]"] ;
212 -> 214 ;
215 [label="entropy = 0.0\nsamples = 2\nvalue = [0, 2, 0, 0, 0, 0, 0, 0, 0, 0, 0, 0, 0]"] ;
211 -> 215 ;
216 [label="entropy = 0.0\nsamples = 2\nvalue = [0, 0, 2, 0, 0, 0, 0, 0, 0, 0, 0, 0, 0]"] ;
208 -> 216 ;
217 [label="X[12] <= -78.5\nentropy = 1.479\nsamples = 33\nvalue = [9, 17, 7, 0, 0, 0, 0, 0, 0, 0, 0, 0, 0]"] ;
207 -> 217 ;
218 [label="X[15] <= -77.0\nentropy = 0.918\nsamples = 6\nvalue = [0, 4, 2, 0, 0, 0, 0, 0, 0, 0, 0, 0, 0]"] ;
217 -> 218 ;
219 [label="X[12] <= -79.5\nentropy = 0.918\nsamples = 3\nvalue = [0, 1, 2, 0, 0, 0, 0, 0, 0, 0, 0, 0, 0]"] ;
218 -> 219 ;
220 [label="entropy = 0.0\nsamples = 2\nvalue = [0, 0, 2, 0, 0, 0, 0, 0, 0, 0, 0, 0, 0]"] ;
219 -> 220 ;
221 [label="entropy = 0.0\nsamples = 1\nvalue = [0, 1, 0, 0, 0, 0, 0, 0, 0, 0, 0, 0, 0]"] ;
219 -> 221 ;
222 [label="entropy = 0.0\nsamples = 3\nvalue = [0, 3, 0, 0, 0, 0, 0, 0, 0, 0, 0, 0, 0]"] ;
218 -> 222 ;
223 [label="X[15] <= -74.5\nentropy = 1.487\nsamples = 27\nvalue = [9, 13, 5, 0, 0, 0, 0, 0, 0, 0, 0, 0, 0]"] ;
217 -> 223 ;
224 [label="X[15] <= -76.25\nentropy = 1.384\nsamples = 19\nvalue = [5, 11, 3, 0, 0, 0, 0, 0, 0, 0, 0, 0, 0]"] ;
223 -> 224 ;
225 [label="X[15] <= -77.5\nentropy = 1.477\nsamples = 16\nvalue = [5, 8, 3, 0, 0, 0, 0, 0, 0, 0, 0, 0, 0]"] ;
224 -> 225 ;
226 [label="X[0] <= -68.5\nentropy = 1.379\nsamples = 14\nvalue = [4, 8, 2, 0, 0, 0, 0, 0, 0, 0, 0, 0, 0]"] ;
225 -> 226 ;
227 [label="X[3] <= -76.25\nentropy = 1.061\nsamples = 8\nvalue = [1, 6, 1, 0, 0, 0, 0, 0, 0, 0, 0, 0, 0]"] ;
226 -> 227 ;
228 [label="X[0] <= -71.0\nentropy = 0.65\nsamples = 6\nvalue = [0, 5, 1, 0, 0, 0, 0, 0, 0, 0, 0, 0, 0]"] ;
227 -> 228 ;
229 [label="entropy = 0.0\nsamples = 4\nvalue = [0, 4, 0, 0, 0, 0, 0, 0, 0, 0, 0, 0, 0]"] ;
228 -> 229 ;
230 [label="X[0] <= -69.5\nentropy = 1.0\nsamples = 2\nvalue = [0, 1, 1, 0, 0, 0, 0, 0, 0, 0, 0, 0, 0]"] ;
228 -> 230 ;
231 [label="entropy = 0.0\nsamples = 1\nvalue = [0, 0, 1, 0, 0, 0, 0, 0, 0, 0, 0, 0, 0]"] ;
230 -> 231 ;
232 [label="entropy = 0.0\nsamples = 1\nvalue = [0, 1, 0, 0, 0, 0, 0, 0, 0, 0, 0, 0, 0]"] ;
230 -> 232 ;
233 [label="X[15] <= -78.5\nentropy = 1.0\nsamples = 2\nvalue = [1, 1, 0, 0, 0, 0, 0, 0, 0, 0, 0, 0, 0]"] ;
227 -> 233 ;
234 [label="entropy = 0.0\nsamples = 1\nvalue = [1, 0, 0, 0, 0, 0, 0, 0, 0, 0, 0, 0, 0]"] ;
233 -> 234 ;
235 [label="entropy = 0.0\nsamples = 1\nvalue = [0, 1, 0, 0, 0, 0, 0, 0, 0, 0, 0, 0, 0]"] ;
233 -> 235 ;
236 [label="X[0] <= -65.5\nentropy = 1.459\nsamples = 6\nvalue = [3, 2, 1, 0, 0, 0, 0, 0, 0, 0, 0, 0, 0]"] ;
226 -> 236 ;
237 [label="X[3] <= -77.5\nentropy = 0.918\nsamples = 3\nvalue = [2, 0, 1, 0, 0, 0, 0, 0, 0, 0, 0, 0, 0]"] ;
236 -> 237 ;
238 [label="entropy = 0.0\nsamples = 1\nvalue = [0, 0, 1, 0, 0, 0, 0, 0, 0, 0, 0, 0, 0]"] ;
237 -> 238 ;
239 [label="entropy = 0.0\nsamples = 2\nvalue = [2, 0, 0, 0, 0, 0, 0, 0, 0, 0, 0, 0, 0]"] ;
237 -> 239 ;
240 [label="X[12] <= -39.0\nentropy = 0.918\nsamples = 3\nvalue = [1, 2, 0, 0, 0, 0, 0, 0, 0, 0, 0, 0, 0]"] ;
236 -> 240 ;
241 [label="entropy = 0.0\nsamples = 1\nvalue = [1, 0, 0, 0, 0, 0, 0, 0, 0, 0, 0, 0, 0]"] ;
240 -> 241 ;
242 [label="entropy = 0.0\nsamples = 2\nvalue = [0, 2, 0, 0, 0, 0, 0, 0, 0, 0, 0, 0, 0]"] ;
240 -> 242 ;
243 [label="X[0] <= -74.25\nentropy = 1.0\nsamples = 2\nvalue = [1, 0, 1, 0, 0, 0, 0, 0, 0, 0, 0, 0, 0]"] ;
225 -> 243 ;
244 [label="entropy = 0.0\nsamples = 1\nvalue = [1, 0, 0, 0, 0, 0, 0, 0, 0, 0, 0, 0, 0]"] ;
243 -> 244 ;
245 [label="entropy = 0.0\nsamples = 1\nvalue = [0, 0, 1, 0, 0, 0, 0, 0, 0, 0, 0, 0, 0]"] ;
243 -> 245 ;
246 [label="entropy = 0.0\nsamples = 3\nvalue = [0, 3, 0, 0, 0, 0, 0, 0, 0, 0, 0, 0, 0]"] ;
224 -> 246 ;
247 [label="X[0] <= -71.75\nentropy = 1.5\nsamples = 8\nvalue = [4, 2, 2, 0, 0, 0, 0, 0, 0, 0, 0, 0, 0]"] ;
223 -> 247 ;
248 [label="X[3] <= -76.5\nentropy = 0.971\nsamples = 5\nvalue = [3, 0, 2, 0, 0, 0, 0, 0, 0, 0, 0, 0, 0]"] ;
247 -> 248 ;
249 [label="entropy = 0.0\nsamples = 1\nvalue = [0, 0, 1, 0, 0, 0, 0, 0, 0, 0, 0, 0, 0]"] ;
248 -> 249 ;
250 [label="X[0] <= -73.75\nentropy = 0.811\nsamples = 4\nvalue = [3, 0, 1, 0, 0, 0, 0, 0, 0, 0, 0, 0, 0]"] ;
248 -> 250 ;
251 [label="entropy = 0.0\nsamples = 2\nvalue = [2, 0, 0, 0, 0, 0, 0, 0, 0, 0, 0, 0, 0]"] ;
250 -> 251 ;
252 [label="X[0] <= -73.0\nentropy = 1.0\nsamples = 2\nvalue = [1, 0, 1, 0, 0, 0, 0, 0, 0, 0, 0, 0, 0]"] ;
250 -> 252 ;
253 [label="entropy = 0.0\nsamples = 1\nvalue = [0, 0, 1, 0, 0, 0, 0, 0, 0, 0, 0, 0, 0]"] ;
252 -> 253 ;
254 [label="entropy = 0.0\nsamples = 1\nvalue = [1, 0, 0, 0, 0, 0, 0, 0, 0, 0, 0, 0, 0]"] ;
252 -> 254 ;
255 [label="X[0] <= -66.5\nentropy = 0.918\nsamples = 3\nvalue = [1, 2, 0, 0, 0, 0, 0, 0, 0, 0, 0, 0, 0]"] ;
247 -> 255 ;
256 [label="entropy = 0.0\nsamples = 2\nvalue = [0, 2, 0, 0, 0, 0, 0, 0, 0, 0, 0, 0, 0]"] ;
255 -> 256 ;
257 [label="entropy = 0.0\nsamples = 1\nvalue = [1, 0, 0, 0, 0, 0, 0, 0, 0, 0, 0, 0, 0]"] ;
255 -> 257 ;
258 [label="X[0] <= -74.5\nentropy = 1.0\nsamples = 8\nvalue = [4, 4, 0, 0, 0, 0, 0, 0, 0, 0, 0, 0, 0]"] ;
206 -> 258 ;
259 [label="entropy = 0.0\nsamples = 3\nvalue = [3, 0, 0, 0, 0, 0, 0, 0, 0, 0, 0, 0, 0]"] ;
258 -> 259 ;
260 [label="X[12] <= -81.5\nentropy = 0.722\nsamples = 5\nvalue = [1, 4, 0, 0, 0, 0, 0, 0, 0, 0, 0, 0, 0]"] ;
258 -> 260 ;
261 [label="entropy = 0.0\nsamples = 1\nvalue = [1, 0, 0, 0, 0, 0, 0, 0, 0, 0, 0, 0, 0]"] ;
260 -> 261 ;
262 [label="entropy = 0.0\nsamples = 4\nvalue = [0, 4, 0, 0, 0, 0, 0, 0, 0, 0, 0, 0, 0]"] ;
260 -> 262 ;
263 [label="X[15] <= -78.5\nentropy = 1.975\nsamples = 113\nvalue = [25, 30, 36, 22, 0, 0, 0, 0, 0, 0, 0, 0, 0]"] ;
129 -> 263 ;
264 [label="X[3] <= -64.5\nentropy = 1.576\nsamples = 35\nvalue = [1, 8, 19, 7, 0, 0, 0, 0, 0, 0, 0, 0, 0]"] ;
263 -> 264 ;
265 [label="X[15] <= -81.5\nentropy = 1.249\nsamples = 27\nvalue = [0, 5, 18, 4, 0, 0, 0, 0, 0, 0, 0, 0, 0]"] ;
264 -> 265 ;
266 [label="X[12] <= -39.0\nentropy = 0.811\nsamples = 4\nvalue = [0, 3, 1, 0, 0, 0, 0, 0, 0, 0, 0, 0, 0]"] ;
265 -> 266 ;
267 [label="X[12] <= -80.0\nentropy = 1.0\nsamples = 2\nvalue = [0, 1, 1, 0, 0, 0, 0, 0, 0, 0, 0, 0, 0]"] ;
266 -> 267 ;
268 [label="entropy = 0.0\nsamples = 1\nvalue = [0, 1, 0, 0, 0, 0, 0, 0, 0, 0, 0, 0, 0]"] ;
267 -> 268 ;
269 [label="entropy = 0.0\nsamples = 1\nvalue = [0, 0, 1, 0, 0, 0, 0, 0, 0, 0, 0, 0, 0]"] ;
267 -> 269 ;
270 [label="entropy = 0.0\nsamples = 2\nvalue = [0, 2, 0, 0, 0, 0, 0, 0, 0, 0, 0, 0, 0]"] ;
266 -> 270 ;
271 [label="X[15] <= -79.25\nentropy = 1.068\nsamples = 23\nvalue = [0, 2, 17, 4, 0, 0, 0, 0, 0, 0, 0, 0, 0]"] ;
265 -> 271 ;
272 [label="X[3] <= -66.5\nentropy = 0.75\nsamples = 14\nvalue = [0, 0, 11, 3, 0, 0, 0, 0, 0, 0, 0, 0, 0]"] ;
271 -> 272 ;
273 [label="X[3] <= -70.25\nentropy = 0.619\nsamples = 13\nvalue = [0, 0, 11, 2, 0, 0, 0, 0, 0, 0, 0, 0, 0]"] ;
272 -> 273 ;
274 [label="X[3] <= -72.25\nentropy = 0.863\nsamples = 7\nvalue = [0, 0, 5, 2, 0, 0, 0, 0, 0, 0, 0, 0, 0]"] ;
273 -> 274 ;
275 [label="entropy = 0.0\nsamples = 4\nvalue = [0, 0, 4, 0, 0, 0, 0, 0, 0, 0, 0, 0, 0]"] ;
274 -> 275 ;
276 [label="X[15] <= -80.5\nentropy = 0.918\nsamples = 3\nvalue = [0, 0, 1, 2, 0, 0, 0, 0, 0, 0, 0, 0, 0]"] ;
274 -> 276 ;
277 [label="entropy = 0.0\nsamples = 2\nvalue = [0, 0, 0, 2, 0, 0, 0, 0, 0, 0, 0, 0, 0]"] ;
276 -> 277 ;
278 [label="entropy = 0.0\nsamples = 1\nvalue = [0, 0, 1, 0, 0, 0, 0, 0, 0, 0, 0, 0, 0]"] ;
276 -> 278 ;
279 [label="entropy = 0.0\nsamples = 6\nvalue = [0, 0, 6, 0, 0, 0, 0, 0, 0, 0, 0, 0, 0]"] ;
273 -> 279 ;
280 [label="entropy = 0.0\nsamples = 1\nvalue = [0, 0, 0, 1, 0, 0, 0, 0, 0, 0, 0, 0, 0]"] ;
272 -> 280 ;
281 [label="X[3] <= -68.75\nentropy = 1.224\nsamples = 9\nvalue = [0, 2, 6, 1, 0, 0, 0, 0, 0, 0, 0, 0, 0]"] ;
271 -> 281 ;
282 [label="X[0] <= -75.5\nentropy = 0.971\nsamples = 5\nvalue = [0, 2, 3, 0, 0, 0, 0, 0, 0, 0, 0, 0, 0]"] ;
281 -> 282 ;
283 [label="entropy = 0.0\nsamples = 1\nvalue = [0, 1, 0, 0, 0, 0, 0, 0, 0, 0, 0, 0, 0]"] ;
282 -> 283 ;
284 [label="X[3] <= -72.5\nentropy = 0.811\nsamples = 4\nvalue = [0, 1, 3, 0, 0, 0, 0, 0, 0, 0, 0, 0, 0]"] ;
282 -> 284 ;
285 [label="entropy = 0.0\nsamples = 1\nvalue = [0, 0, 1, 0, 0, 0, 0, 0, 0, 0, 0, 0, 0]"] ;
284 -> 285 ;
286 [label="X[3] <= -71.75\nentropy = 0.918\nsamples = 3\nvalue = [0, 1, 2, 0, 0, 0, 0, 0, 0, 0, 0, 0, 0]"] ;
284 -> 286 ;
287 [label="X[12] <= -38.0\nentropy = 1.0\nsamples = 2\nvalue = [0, 1, 1, 0, 0, 0, 0, 0, 0, 0, 0, 0, 0]"] ;
286 -> 287 ;
288 [label="entropy = 0.0\nsamples = 1\nvalue = [0, 1, 0, 0, 0, 0, 0, 0, 0, 0, 0, 0, 0]"] ;
287 -> 288 ;
289 [label="entropy = 0.0\nsamples = 1\nvalue = [0, 0, 1, 0, 0, 0, 0, 0, 0, 0, 0, 0, 0]"] ;
287 -> 289 ;
290 [label="entropy = 0.0\nsamples = 1\nvalue = [0, 0, 1, 0, 0, 0, 0, 0, 0, 0, 0, 0, 0]"] ;
286 -> 290 ;
291 [label="X[0] <= -69.5\nentropy = 0.811\nsamples = 4\nvalue = [0, 0, 3, 1, 0, 0, 0, 0, 0, 0, 0, 0, 0]"] ;
281 -> 291 ;
292 [label="X[3] <= -67.25\nentropy = 1.0\nsamples = 2\nvalue = [0, 0, 1, 1, 0, 0, 0, 0, 0, 0, 0, 0, 0]"] ;
291 -> 292 ;
293 [label="entropy = 0.0\nsamples = 1\nvalue = [0, 0, 1, 0, 0, 0, 0, 0, 0, 0, 0, 0, 0]"] ;
292 -> 293 ;
294 [label="entropy = 0.0\nsamples = 1\nvalue = [0, 0, 0, 1, 0, 0, 0, 0, 0, 0, 0, 0, 0]"] ;
292 -> 294 ;
295 [label="entropy = 0.0\nsamples = 2\nvalue = [0, 0, 2, 0, 0, 0, 0, 0, 0, 0, 0, 0, 0]"] ;
291 -> 295 ;
296 [label="X[12] <= -38.0\nentropy = 1.811\nsamples = 8\nvalue = [1, 3, 1, 3, 0, 0, 0, 0, 0, 0, 0, 0, 0]"] ;
264 -> 296 ;
297 [label="X[3] <= -61.0\nentropy = 1.0\nsamples = 2\nvalue = [1, 0, 1, 0, 0, 0, 0, 0, 0, 0, 0, 0, 0]"] ;
296 -> 297 ;
298 [label="entropy = 0.0\nsamples = 1\nvalue = [0, 0, 1, 0, 0, 0, 0, 0, 0, 0, 0, 0, 0]"] ;
297 -> 298 ;
299 [label="entropy = 0.0\nsamples = 1\nvalue = [1, 0, 0, 0, 0, 0, 0, 0, 0, 0, 0, 0, 0]"] ;
297 -> 299 ;
300 [label="X[0] <= -75.75\nentropy = 1.0\nsamples = 6\nvalue = [0, 3, 0, 3, 0, 0, 0, 0, 0, 0, 0, 0, 0]"] ;
296 -> 300 ;
301 [label="X[0] <= -78.5\nentropy = 0.811\nsamples = 4\nvalue = [0, 1, 0, 3, 0, 0, 0, 0, 0, 0, 0, 0, 0]"] ;
300 -> 301 ;
302 [label="entropy = 0.0\nsamples = 1\nvalue = [0, 1, 0, 0, 0, 0, 0, 0, 0, 0, 0, 0, 0]"] ;
301 -> 302 ;
303 [label="entropy = 0.0\nsamples = 3\nvalue = [0, 0, 0, 3, 0, 0, 0, 0, 0, 0, 0, 0, 0]"] ;
301 -> 303 ;
304 [label="entropy = 0.0\nsamples = 2\nvalue = [0, 2, 0, 0, 0, 0, 0, 0, 0, 0, 0, 0, 0]"] ;
300 -> 304 ;
305 [label="X[0] <= -72.5\nentropy = 1.975\nsamples = 78\nvalue = [24, 22, 17, 15, 0, 0, 0, 0, 0, 0, 0, 0, 0]"] ;
263 -> 305 ;
306 [label="X[3] <= -72.75\nentropy = 1.976\nsamples = 51\nvalue = [13, 9, 14, 15, 0, 0, 0, 0, 0, 0, 0, 0, 0]"] ;
305 -> 306 ;
307 [label="X[12] <= -38.5\nentropy = 1.379\nsamples = 7\nvalue = [0, 2, 4, 1, 0, 0, 0, 0, 0, 0, 0, 0, 0]"] ;
306 -> 307 ;
308 [label="X[3] <= -73.25\nentropy = 0.918\nsamples = 3\nvalue = [0, 2, 0, 1, 0, 0, 0, 0, 0, 0, 0, 0, 0]"] ;
307 -> 308 ;
309 [label="entropy = 0.0\nsamples = 1\nvalue = [0, 0, 0, 1, 0, 0, 0, 0, 0, 0, 0, 0, 0]"] ;
308 -> 309 ;
310 [label="entropy = 0.0\nsamples = 2\nvalue = [0, 2, 0, 0, 0, 0, 0, 0, 0, 0, 0, 0, 0]"] ;
308 -> 310 ;
311 [label="entropy = 0.0\nsamples = 4\nvalue = [0, 0, 4, 0, 0, 0, 0, 0, 0, 0, 0, 0, 0]"] ;
307 -> 311 ;
312 [label="X[3] <= -70.25\nentropy = 1.953\nsamples = 44\nvalue = [13, 7, 10, 14, 0, 0, 0, 0, 0, 0, 0, 0, 0]"] ;
306 -> 312 ;
313 [label="X[3] <= -71.25\nentropy = 1.42\nsamples = 16\nvalue = [4, 0, 3, 9, 0, 0, 0, 0, 0, 0, 0, 0, 0]"] ;
312 -> 313 ;
314 [label="X[0] <= -75.5\nentropy = 1.406\nsamples = 8\nvalue = [4, 0, 1, 3, 0, 0, 0, 0, 0, 0, 0, 0, 0]"] ;
313 -> 314 ;
315 [label="X[15] <= -76.5\nentropy = 0.811\nsamples = 4\nvalue = [1, 0, 0, 3, 0, 0, 0, 0, 0, 0, 0, 0, 0]"] ;
314 -> 315 ;
316 [label="entropy = 0.0\nsamples = 2\nvalue = [0, 0, 0, 2, 0, 0, 0, 0, 0, 0, 0, 0, 0]"] ;
315 -> 316 ;
317 [label="X[0] <= -76.5\nentropy = 1.0\nsamples = 2\nvalue = [1, 0, 0, 1, 0, 0, 0, 0, 0, 0, 0, 0, 0]"] ;
315 -> 317 ;
318 [label="entropy = 0.0\nsamples = 1\nvalue = [1, 0, 0, 0, 0, 0, 0, 0, 0, 0, 0, 0, 0]"] ;
317 -> 318 ;
319 [label="entropy = 0.0\nsamples = 1\nvalue = [0, 0, 0, 1, 0, 0, 0, 0, 0, 0, 0, 0, 0]"] ;
317 -> 319 ;
320 [label="X[15] <= -75.5\nentropy = 0.811\nsamples = 4\nvalue = [3, 0, 1, 0, 0, 0, 0, 0, 0, 0, 0, 0, 0]"] ;
314 -> 320 ;
321 [label="entropy = 0.0\nsamples = 1\nvalue = [0, 0, 1, 0, 0, 0, 0, 0, 0, 0, 0, 0, 0]"] ;
320 -> 321 ;
322 [label="entropy = 0.0\nsamples = 3\nvalue = [3, 0, 0, 0, 0, 0, 0, 0, 0, 0, 0, 0, 0]"] ;
320 -> 322 ;
323 [label="X[15] <= -75.5\nentropy = 0.811\nsamples = 8\nvalue = [0, 0, 2, 6, 0, 0, 0, 0, 0, 0, 0, 0, 0]"] ;
313 -> 323 ;
324 [label="X[15] <= -76.5\nentropy = 0.918\nsamples = 6\nvalue = [0, 0, 2, 4, 0, 0, 0, 0, 0, 0, 0, 0, 0]"] ;
323 -> 324 ;
325 [label="X[0] <= -78.5\nentropy = 0.722\nsamples = 5\nvalue = [0, 0, 1, 4, 0, 0, 0, 0, 0, 0, 0, 0, 0]"] ;
324 -> 325 ;
326 [label="entropy = 0.0\nsamples = 1\nvalue = [0, 0, 1, 0, 0, 0, 0, 0, 0, 0, 0, 0, 0]"] ;
325 -> 326 ;
327 [label="entropy = 0.0\nsamples = 4\nvalue = [0, 0, 0, 4, 0, 0, 0, 0, 0, 0, 0, 0, 0]"] ;
325 -> 327 ;
328 [label="entropy = 0.0\nsamples = 1\nvalue = [0, 0, 1, 0, 0, 0, 0, 0, 0, 0, 0, 0, 0]"] ;
324 -> 328 ;
329 [label="entropy = 0.0\nsamples = 2\nvalue = [0, 0, 0, 2, 0, 0, 0, 0, 0, 0, 0, 0, 0]"] ;
323 -> 329 ;
330 [label="X[3] <= -66.25\nentropy = 1.97\nsamples = 28\nvalue = [9, 7, 7, 5, 0, 0, 0, 0, 0, 0, 0, 0, 0]"] ;
312 -> 330 ;
331 [label="X[0] <= -79.5\nentropy = 1.531\nsamples = 14\nvalue = [5, 3, 6, 0, 0, 0, 0, 0, 0, 0, 0, 0, 0]"] ;
330 -> 331 ;
332 [label="entropy = 0.0\nsamples = 2\nvalue = [0, 2, 0, 0, 0, 0, 0, 0, 0, 0, 0, 0, 0]"] ;
331 -> 332 ;
333 [label="X[3] <= -68.5\nentropy = 1.325\nsamples = 12\nvalue = [5, 1, 6, 0, 0, 0, 0, 0, 0, 0, 0, 0, 0]"] ;
331 -> 333 ;
334 [label="X[15] <= -77.375\nentropy = 0.863\nsamples = 7\nvalue = [5, 0, 2, 0, 0, 0, 0, 0, 0, 0, 0, 0, 0]"] ;
333 -> 334 ;
335 [label="entropy = 0.0\nsamples = 1\nvalue = [0, 0, 1, 0, 0, 0, 0, 0, 0, 0, 0, 0, 0]"] ;
334 -> 335 ;
336 [label="X[0] <= -75.0\nentropy = 0.65\nsamples = 6\nvalue = [5, 0, 1, 0, 0, 0, 0, 0, 0, 0, 0, 0, 0]"] ;
334 -> 336 ;
337 [label="entropy = 0.0\nsamples = 4\nvalue = [4, 0, 0, 0, 0, 0, 0, 0, 0, 0, 0, 0, 0]"] ;
336 -> 337 ;
338 [label="X[0] <= -73.5\nentropy = 1.0\nsamples = 2\nvalue = [1, 0, 1, 0, 0, 0, 0, 0, 0, 0, 0, 0, 0]"] ;
336 -> 338 ;
339 [label="entropy = 0.0\nsamples = 1\nvalue = [0, 0, 1, 0, 0, 0, 0, 0, 0, 0, 0, 0, 0]"] ;
338 -> 339 ;
340 [label="entropy = 0.0\nsamples = 1\nvalue = [1, 0, 0, 0, 0, 0, 0, 0, 0, 0, 0, 0, 0]"] ;
338 -> 340 ;
341 [label="X[3] <= -67.75\nentropy = 0.722\nsamples = 5\nvalue = [0, 1, 4, 0, 0, 0, 0, 0, 0, 0, 0, 0, 0]"] ;
333 -> 341 ;
342 [label="entropy = 0.0\nsamples = 3\nvalue = [0, 0, 3, 0, 0, 0, 0, 0, 0, 0, 0, 0, 0]"] ;
341 -> 342 ;
343 [label="X[15] <= -75.0\nentropy = 1.0\nsamples = 2\nvalue = [0, 1, 1, 0, 0, 0, 0, 0, 0, 0, 0, 0, 0]"] ;
341 -> 343 ;
344 [label="entropy = 0.0\nsamples = 1\nvalue = [0, 1, 0, 0, 0, 0, 0, 0, 0, 0, 0, 0, 0]"] ;
343 -> 344 ;
345 [label="entropy = 0.0\nsamples = 1\nvalue = [0, 0, 1, 0, 0, 0, 0, 0, 0, 0, 0, 0, 0]"] ;
343 -> 345 ;
346 [label="X[0] <= -78.75\nentropy = 1.835\nsamples = 14\nvalue = [4, 4, 1, 5, 0, 0, 0, 0, 0, 0, 0, 0, 0]"] ;
330 -> 346 ;
347 [label="entropy = 0.0\nsamples = 1\nvalue = [0, 0, 1, 0, 0, 0, 0, 0, 0, 0, 0, 0, 0]"] ;
346 -> 347 ;
348 [label="X[12] <= -78.0\nentropy = 1.577\nsamples = 13\nvalue = [4, 4, 0, 5, 0, 0, 0, 0, 0, 0, 0, 0, 0]"] ;
346 -> 348 ;
349 [label="entropy = 0.0\nsamples = 2\nvalue = [0, 2, 0, 0, 0, 0, 0, 0, 0, 0, 0, 0, 0]"] ;
348 -> 349 ;
350 [label="X[0] <= -77.5\nentropy = 1.495\nsamples = 11\nvalue = [4, 2, 0, 5, 0, 0, 0, 0, 0, 0, 0, 0, 0]"] ;
348 -> 350 ;
351 [label="X[3] <= -63.5\nentropy = 1.522\nsamples = 5\nvalue = [2, 2, 0, 1, 0, 0, 0, 0, 0, 0, 0, 0, 0]"] ;
350 -> 351 ;
352 [label="entropy = 0.918\nsamples = 3\nvalue = [2, 1, 0, 0, 0, 0, 0, 0, 0, 0, 0, 0, 0]"] ;
351 -> 352 ;
353 [label="X[15] <= -76.5\nentropy = 1.0\nsamples = 2\nvalue = [0, 1, 0, 1, 0, 0, 0, 0, 0, 0, 0, 0, 0]"] ;
351 -> 353 ;
354 [label="entropy = 0.0\nsamples = 1\nvalue = [0, 0, 0, 1, 0, 0, 0, 0, 0, 0, 0, 0, 0]"] ;
353 -> 354 ;
355 [label="entropy = 0.0\nsamples = 1\nvalue = [0, 1, 0, 0, 0, 0, 0, 0, 0, 0, 0, 0, 0]"] ;
353 -> 355 ;
356 [label="X[12] <= -38.0\nentropy = 0.918\nsamples = 6\nvalue = [2, 0, 0, 4, 0, 0, 0, 0, 0, 0, 0, 0, 0]"] ;
350 -> 356 ;
357 [label="entropy = 0.0\nsamples = 1\nvalue = [1, 0, 0, 0, 0, 0, 0, 0, 0, 0, 0, 0, 0]"] ;
356 -> 357 ;
358 [label="X[15] <= -74.0\nentropy = 0.722\nsamples = 5\nvalue = [1, 0, 0, 4, 0, 0, 0, 0, 0, 0, 0, 0, 0]"] ;
356 -> 358 ;
359 [label="entropy = 0.0\nsamples = 4\nvalue = [0, 0, 0, 4, 0, 0, 0, 0, 0, 0, 0, 0, 0]"] ;
358 -> 359 ;
360 [label="entropy = 0.0\nsamples = 1\nvalue = [1, 0, 0, 0, 0, 0, 0, 0, 0, 0, 0, 0, 0]"] ;
358 -> 360 ;
361 [label="X[15] <= -76.25\nentropy = 1.388\nsamples = 27\nvalue = [11, 13, 3, 0, 0, 0, 0, 0, 0, 0, 0, 0, 0]"] ;
305 -> 361 ;
362 [label="X[3] <= -71.0\nentropy = 0.722\nsamples = 10\nvalue = [2, 8, 0, 0, 0, 0, 0, 0, 0, 0, 0, 0, 0]"] ;
361 -> 362 ;
363 [label="X[3] <= -72.75\nentropy = 1.0\nsamples = 4\nvalue = [2, 2, 0, 0, 0, 0, 0, 0, 0, 0, 0, 0, 0]"] ;
362 -> 363 ;
364 [label="entropy = 0.0\nsamples = 2\nvalue = [0, 2, 0, 0, 0, 0, 0, 0, 0, 0, 0, 0, 0]"] ;
363 -> 364 ;
365 [label="entropy = 0.0\nsamples = 2\nvalue = [2, 0, 0, 0, 0, 0, 0, 0, 0, 0, 0, 0, 0]"] ;
363 -> 365 ;
366 [label="entropy = 0.0\nsamples = 6\nvalue = [0, 6, 0, 0, 0, 0, 0, 0, 0, 0, 0, 0, 0]"] ;
362 -> 366 ;
367 [label="X[12] <= -82.5\nentropy = 1.447\nsamples = 17\nvalue = [9, 5, 3, 0, 0, 0, 0, 0, 0, 0, 0, 0, 0]"] ;
361 -> 367 ;
368 [label="entropy = 0.0\nsamples = 1\nvalue = [0, 0, 1, 0, 0, 0, 0, 0, 0, 0, 0, 0, 0]"] ;
367 -> 368 ;
369 [label="X[3] <= -59.5\nentropy = 1.366\nsamples = 16\nvalue = [9, 5, 2, 0, 0, 0, 0, 0, 0, 0, 0, 0, 0]"] ;
367 -> 369 ;
370 [label="X[0] <= -70.5\nentropy = 1.231\nsamples = 15\nvalue = [9, 5, 1, 0, 0, 0, 0, 0, 0, 0, 0, 0, 0]"] ;
369 -> 370 ;
371 [label="X[15] <= -72.5\nentropy = 0.918\nsamples = 3\nvalue = [2, 0, 1, 0, 0, 0, 0, 0, 0, 0, 0, 0, 0]"] ;
370 -> 371 ;
372 [label="entropy = 0.0\nsamples = 1\nvalue = [0, 0, 1, 0, 0, 0, 0, 0, 0, 0, 0, 0, 0]"] ;
371 -> 372 ;
373 [label="entropy = 0.0\nsamples = 2\nvalue = [2, 0, 0, 0, 0, 0, 0, 0, 0, 0, 0, 0, 0]"] ;
371 -> 373 ;
374 [label="X[12] <= -79.5\nentropy = 0.98\nsamples = 12\nvalue = [7, 5, 0, 0, 0, 0, 0, 0, 0, 0, 0, 0, 0]"] ;
370 -> 374 ;
375 [label="entropy = 0.0\nsamples = 3\nvalue = [3, 0, 0, 0, 0, 0, 0, 0, 0, 0, 0, 0, 0]"] ;
374 -> 375 ;
376 [label="X[3] <= -67.5\nentropy = 0.991\nsamples = 9\nvalue = [4, 5, 0, 0, 0, 0, 0, 0, 0, 0, 0, 0, 0]"] ;
374 -> 376 ;
377 [label="X[0] <= -69.0\nentropy = 0.722\nsamples = 5\nvalue = [1, 4, 0, 0, 0, 0, 0, 0, 0, 0, 0, 0, 0]"] ;
376 -> 377 ;
378 [label="entropy = 0.0\nsamples = 2\nvalue = [0, 2, 0, 0, 0, 0, 0, 0, 0, 0, 0, 0, 0]"] ;
377 -> 378 ;
379 [label="X[15] <= -74.0\nentropy = 0.918\nsamples = 3\nvalue = [1, 2, 0, 0, 0, 0, 0, 0, 0, 0, 0, 0, 0]"] ;
377 -> 379 ;
380 [label="entropy = 0.0\nsamples = 1\nvalue = [0, 1, 0, 0, 0, 0, 0, 0, 0, 0, 0, 0, 0]"] ;
379 -> 380 ;
381 [label="X[12] <= -39.5\nentropy = 1.0\nsamples = 2\nvalue = [1, 1, 0, 0, 0, 0, 0, 0, 0, 0, 0, 0, 0]"] ;
379 -> 381 ;
382 [label="entropy = 0.0\nsamples = 1\nvalue = [0, 1, 0, 0, 0, 0, 0, 0, 0, 0, 0, 0, 0]"] ;
381 -> 382 ;
383 [label="entropy = 0.0\nsamples = 1\nvalue = [1, 0, 0, 0, 0, 0, 0, 0, 0, 0, 0, 0, 0]"] ;
381 -> 383 ;
384 [label="X[15] <= -73.0\nentropy = 0.811\nsamples = 4\nvalue = [3, 1, 0, 0, 0, 0, 0, 0, 0, 0, 0, 0, 0]"] ;
376 -> 384 ;
385 [label="X[15] <= -74.5\nentropy = 1.0\nsamples = 2\nvalue = [1, 1, 0, 0, 0, 0, 0, 0, 0, 0, 0, 0, 0]"] ;
384 -> 385 ;
386 [label="entropy = 0.0\nsamples = 1\nvalue = [1, 0, 0, 0, 0, 0, 0, 0, 0, 0, 0, 0, 0]"] ;
385 -> 386 ;
387 [label="entropy = 0.0\nsamples = 1\nvalue = [0, 1, 0, 0, 0, 0, 0, 0, 0, 0, 0, 0, 0]"] ;
385 -> 387 ;
388 [label="entropy = 0.0\nsamples = 2\nvalue = [2, 0, 0, 0, 0, 0, 0, 0, 0, 0, 0, 0, 0]"] ;
384 -> 388 ;
389 [label="entropy = 0.0\nsamples = 1\nvalue = [0, 0, 1, 0, 0, 0, 0, 0, 0, 0, 0, 0, 0]"] ;
369 -> 389 ;
390 [label="X[15] <= -71.75\nentropy = 2.49\nsamples = 78\nvalue = [3, 16, 28, 18, 0, 5, 2, 2, 1, 2, 0, 0, 1]"] ;
2 -> 390 ;
391 [label="X[15] <= -77.25\nentropy = 2.023\nsamples = 66\nvalue = [3, 15, 26, 18, 0, 3, 1, 0, 0, 0, 0, 0, 0]"] ;
390 -> 391 ;
392 [label="X[12] <= -33.5\nentropy = 1.927\nsamples = 31\nvalue = [0, 12, 4, 11, 0, 3, 1, 0, 0, 0, 0, 0, 0]"] ;
391 -> 392 ;
393 [label="X[12] <= -78.5\nentropy = 1.681\nsamples = 27\nvalue = [0, 12, 2, 10, 0, 3, 0, 0, 0, 0, 0, 0, 0]"] ;
392 -> 393 ;
394 [label="X[15] <= -78.75\nentropy = 1.45\nsamples = 17\nvalue = [0, 5, 1, 10, 0, 1, 0, 0, 0, 0, 0, 0, 0]"] ;
393 -> 394 ;
395 [label="X[3] <= -74.0\nentropy = 1.922\nsamples = 5\nvalue = [0, 2, 1, 1, 0, 1, 0, 0, 0, 0, 0, 0, 0]"] ;
394 -> 395 ;
396 [label="X[3] <= -77.75\nentropy = 1.0\nsamples = 2\nvalue = [0, 0, 0, 1, 0, 1, 0, 0, 0, 0, 0, 0, 0]"] ;
395 -> 396 ;
397 [label="entropy = 0.0\nsamples = 1\nvalue = [0, 0, 0, 0, 0, 1, 0, 0, 0, 0, 0, 0, 0]"] ;
396 -> 397 ;
398 [label="entropy = 0.0\nsamples = 1\nvalue = [0, 0, 0, 1, 0, 0, 0, 0, 0, 0, 0, 0, 0]"] ;
396 -> 398 ;
399 [label="X[3] <= -71.25\nentropy = 0.918\nsamples = 3\nvalue = [0, 2, 1, 0, 0, 0, 0, 0, 0, 0, 0, 0, 0]"] ;
395 -> 399 ;
400 [label="entropy = 0.0\nsamples = 1\nvalue = [0, 0, 1, 0, 0, 0, 0, 0, 0, 0, 0, 0, 0]"] ;
399 -> 400 ;
401 [label="entropy = 0.0\nsamples = 2\nvalue = [0, 2, 0, 0, 0, 0, 0, 0, 0, 0, 0, 0, 0]"] ;
399 -> 401 ;
402 [label="X[12] <= -83.5\nentropy = 0.811\nsamples = 12\nvalue = [0, 3, 0, 9, 0, 0, 0, 0, 0, 0, 0, 0, 0]"] ;
394 -> 402 ;
403 [label="entropy = 0.0\nsamples = 1\nvalue = [0, 1, 0, 0, 0, 0, 0, 0, 0, 0, 0, 0, 0]"] ;
402 -> 403 ;
404 [label="X[3] <= -79.5\nentropy = 0.684\nsamples = 11\nvalue = [0, 2, 0, 9, 0, 0, 0, 0, 0, 0, 0, 0, 0]"] ;
402 -> 404 ;
405 [label="entropy = 0.0\nsamples = 1\nvalue = [0, 1, 0, 0, 0, 0, 0, 0, 0, 0, 0, 0, 0]"] ;
404 -> 405 ;
406 [label="X[3] <= -75.5\nentropy = 0.469\nsamples = 10\nvalue = [0, 1, 0, 9, 0, 0, 0, 0, 0, 0, 0, 0, 0]"] ;
404 -> 406 ;
407 [label="entropy = 0.0\nsamples = 6\nvalue = [0, 0, 0, 6, 0, 0, 0, 0, 0, 0, 0, 0, 0]"] ;
406 -> 407 ;
408 [label="X[3] <= -72.125\nentropy = 0.811\nsamples = 4\nvalue = [0, 1, 0, 3, 0, 0, 0, 0, 0, 0, 0, 0, 0]"] ;
406 -> 408 ;
409 [label="entropy = 0.0\nsamples = 1\nvalue = [0, 1, 0, 0, 0, 0, 0, 0, 0, 0, 0, 0, 0]"] ;
408 -> 409 ;
410 [label="entropy = 0.0\nsamples = 3\nvalue = [0, 0, 0, 3, 0, 0, 0, 0, 0, 0, 0, 0, 0]"] ;
408 -> 410 ;
411 [label="X[15] <= -78.25\nentropy = 1.157\nsamples = 10\nvalue = [0, 7, 1, 0, 0, 2, 0, 0, 0, 0, 0, 0, 0]"] ;
393 -> 411 ;
412 [label="X[12] <= -76.5\nentropy = 0.592\nsamples = 7\nvalue = [0, 6, 1, 0, 0, 0, 0, 0, 0, 0, 0, 0, 0]"] ;
411 -> 412 ;
413 [label="X[12] <= -77.5\nentropy = 0.918\nsamples = 3\nvalue = [0, 2, 1, 0, 0, 0, 0, 0, 0, 0, 0, 0, 0]"] ;
412 -> 413 ;
414 [label="entropy = 0.0\nsamples = 2\nvalue = [0, 2, 0, 0, 0, 0, 0, 0, 0, 0, 0, 0, 0]"] ;
413 -> 414 ;
415 [label="entropy = 0.0\nsamples = 1\nvalue = [0, 0, 1, 0, 0, 0, 0, 0, 0, 0, 0, 0, 0]"] ;
413 -> 415 ;
416 [label="entropy = 0.0\nsamples = 4\nvalue = [0, 4, 0, 0, 0, 0, 0, 0, 0, 0, 0, 0, 0]"] ;
412 -> 416 ;
417 [label="X[12] <= -77.0\nentropy = 0.918\nsamples = 3\nvalue = [0, 1, 0, 0, 0, 2, 0, 0, 0, 0, 0, 0, 0]"] ;
411 -> 417 ;
418 [label="entropy = 0.0\nsamples = 1\nvalue = [0, 1, 0, 0, 0, 0, 0, 0, 0, 0, 0, 0, 0]"] ;
417 -> 418 ;
419 [label="entropy = 0.0\nsamples = 2\nvalue = [0, 0, 0, 0, 0, 2, 0, 0, 0, 0, 0, 0, 0]"] ;
417 -> 419 ;
420 [label="X[3] <= -80.5\nentropy = 1.5\nsamples = 4\nvalue = [0, 0, 2, 1, 0, 0, 1, 0, 0, 0, 0, 0, 0]"] ;
392 -> 420 ;
421 [label="X[3] <= -139.5\nentropy = 1.0\nsamples = 2\nvalue = [0, 0, 0, 1, 0, 0, 1, 0, 0, 0, 0, 0, 0]"] ;
420 -> 421 ;
422 [label="entropy = 0.0\nsamples = 1\nvalue = [0, 0, 0, 0, 0, 0, 1, 0, 0, 0, 0, 0, 0]"] ;
421 -> 422 ;
423 [label="entropy = 0.0\nsamples = 1\nvalue = [0, 0, 0, 1, 0, 0, 0, 0, 0, 0, 0, 0, 0]"] ;
421 -> 423 ;
424 [label="entropy = 0.0\nsamples = 2\nvalue = [0, 0, 2, 0, 0, 0, 0, 0, 0, 0, 0, 0, 0]"] ;
420 -> 424 ;
425 [label="X[12] <= -78.5\nentropy = 1.493\nsamples = 35\nvalue = [3, 3, 22, 7, 0, 0, 0, 0, 0, 0, 0, 0, 0]"] ;
391 -> 425 ;
426 [label="X[3] <= -71.75\nentropy = 0.837\nsamples = 15\nvalue = [0, 0, 11, 4, 0, 0, 0, 0, 0, 0, 0, 0, 0]"] ;
425 -> 426 ;
427 [label="X[15] <= -75.75\nentropy = 0.918\nsamples = 6\nvalue = [0, 0, 2, 4, 0, 0, 0, 0, 0, 0, 0, 0, 0]"] ;
426 -> 427 ;
428 [label="X[15] <= -76.5\nentropy = 0.918\nsamples = 3\nvalue = [0, 0, 2, 1, 0, 0, 0, 0, 0, 0, 0, 0, 0]"] ;
427 -> 428 ;
429 [label="entropy = 0.0\nsamples = 1\nvalue = [0, 0, 0, 1, 0, 0, 0, 0, 0, 0, 0, 0, 0]"] ;
428 -> 429 ;
430 [label="entropy = 0.0\nsamples = 2\nvalue = [0, 0, 2, 0, 0, 0, 0, 0, 0, 0, 0, 0, 0]"] ;
428 -> 430 ;
431 [label="entropy = 0.0\nsamples = 3\nvalue = [0, 0, 0, 3, 0, 0, 0, 0, 0, 0, 0, 0, 0]"] ;
427 -> 431 ;
432 [label="entropy = 0.0\nsamples = 9\nvalue = [0, 0, 9, 0, 0, 0, 0, 0, 0, 0, 0, 0, 0]"] ;
426 -> 432 ;
433 [label="X[12] <= -34.0\nentropy = 1.706\nsamples = 20\nvalue = [3, 3, 11, 3, 0, 0, 0, 0, 0, 0, 0, 0, 0]"] ;
425 -> 433 ;
434 [label="X[12] <= -73.0\nentropy = 1.585\nsamples = 9\nvalue = [3, 3, 3, 0, 0, 0, 0, 0, 0, 0, 0, 0, 0]"] ;
433 -> 434 ;
435 [label="X[15] <= -75.0\nentropy = 0.971\nsamples = 5\nvalue = [0, 2, 3, 0, 0, 0, 0, 0, 0, 0, 0, 0, 0]"] ;
434 -> 435 ;
436 [label="entropy = 0.0\nsamples = 2\nvalue = [0, 2, 0, 0, 0, 0, 0, 0, 0, 0, 0, 0, 0]"] ;
435 -> 436 ;
437 [label="entropy = 0.0\nsamples = 3\nvalue = [0, 0, 3, 0, 0, 0, 0, 0, 0, 0, 0, 0, 0]"] ;
435 -> 437 ;
438 [label="X[3] <= -71.0\nentropy = 0.811\nsamples = 4\nvalue = [3, 1, 0, 0, 0, 0, 0, 0, 0, 0, 0, 0, 0]"] ;
434 -> 438 ;
439 [label="entropy = 0.0\nsamples = 3\nvalue = [3, 0, 0, 0, 0, 0, 0, 0, 0, 0, 0, 0, 0]"] ;
438 -> 439 ;
440 [label="entropy = 0.0\nsamples = 1\nvalue = [0, 1, 0, 0, 0, 0, 0, 0, 0, 0, 0, 0, 0]"] ;
438 -> 440 ;
441 [label="X[3] <= -70.25\nentropy = 0.845\nsamples = 11\nvalue = [0, 0, 8, 3, 0, 0, 0, 0, 0, 0, 0, 0, 0]"] ;
433 -> 441 ;
442 [label="X[3] <= -78.5\nentropy = 0.544\nsamples = 8\nvalue = [0, 0, 7, 1, 0, 0, 0, 0, 0, 0, 0, 0, 0]"] ;
441 -> 442 ;
443 [label="entropy = 0.0\nsamples = 1\nvalue = [0, 0, 0, 1, 0, 0, 0, 0, 0, 0, 0, 0, 0]"] ;
442 -> 443 ;
444 [label="entropy = 0.0\nsamples = 7\nvalue = [0, 0, 7, 0, 0, 0, 0, 0, 0, 0, 0, 0, 0]"] ;
442 -> 444 ;
445 [label="X[8] <= -79.0\nentropy = 0.918\nsamples = 3\nvalue = [0, 0, 1, 2, 0, 0, 0, 0, 0, 0, 0, 0, 0]"] ;
441 -> 445 ;
446 [label="entropy = 0.0\nsamples = 1\nvalue = [0, 0, 1, 0, 0, 0, 0, 0, 0, 0, 0, 0, 0]"] ;
445 -> 446 ;
447 [label="entropy = 0.0\nsamples = 2\nvalue = [0, 0, 0, 2, 0, 0, 0, 0, 0, 0, 0, 0, 0]"] ;
445 -> 447 ;
448 [label="X[15] <= -65.0\nentropy = 2.918\nsamples = 12\nvalue = [0, 1, 2, 0, 0, 2, 1, 2, 1, 2, 0, 0, 1]"] ;
390 -> 448 ;
449 [label="X[12] <= -71.5\nentropy = 1.5\nsamples = 4\nvalue = [0, 0, 0, 0, 0, 0, 1, 2, 1, 0, 0, 0, 0]"] ;
448 -> 449 ;
450 [label="entropy = 0.0\nsamples = 2\nvalue = [0, 0, 0, 0, 0, 0, 0, 2, 0, 0, 0, 0, 0]"] ;
449 -> 450 ;
451 [label="X[3] <= -79.0\nentropy = 1.0\nsamples = 2\nvalue = [0, 0, 0, 0, 0, 0, 1, 0, 1, 0, 0, 0, 0]"] ;
449 -> 451 ;
452 [label="entropy = 0.0\nsamples = 1\nvalue = [0, 0, 0, 0, 0, 0, 0, 0, 1, 0, 0, 0, 0]"] ;
451 -> 452 ;
453 [label="entropy = 0.0\nsamples = 1\nvalue = [0, 0, 0, 0, 0, 0, 1, 0, 0, 0, 0, 0, 0]"] ;
451 -> 453 ;
454 [label="X[3] <= -76.75\nentropy = 2.25\nsamples = 8\nvalue = [0, 1, 2, 0, 0, 2, 0, 0, 0, 2, 0, 0, 1]"] ;
448 -> 454 ;
455 [label="X[12] <= -78.5\nentropy = 1.922\nsamples = 5\nvalue = [0, 1, 0, 0, 0, 1, 0, 0, 0, 2, 0, 0, 1]"] ;
454 -> 455 ;
456 [label="X[3] <= -78.75\nentropy = 0.918\nsamples = 3\nvalue = [0, 0, 0, 0, 0, 0, 0, 0, 0, 2, 0, 0, 1]"] ;
455 -> 456 ;
457 [label="entropy = 0.0\nsamples = 1\nvalue = [0, 0, 0, 0, 0, 0, 0, 0, 0, 1, 0, 0, 0]"] ;
456 -> 457 ;
458 [label="entropy = 1.0\nsamples = 2\nvalue = [0, 0, 0, 0, 0, 0, 0, 0, 0, 1, 0, 0, 1]"] ;
456 -> 458 ;
459 [label="X[3] <= -78.5\nentropy = 1.0\nsamples = 2\nvalue = [0, 1, 0, 0, 0, 1, 0, 0, 0, 0, 0, 0, 0]"] ;
455 -> 459 ;
460 [label="entropy = 0.0\nsamples = 1\nvalue = [0, 1, 0, 0, 0, 0, 0, 0, 0, 0, 0, 0, 0]"] ;
459 -> 460 ;
461 [label="entropy = 0.0\nsamples = 1\nvalue = [0, 0, 0, 0, 0, 1, 0, 0, 0, 0, 0, 0, 0]"] ;
459 -> 461 ;
462 [label="X[15] <= -60.5\nentropy = 0.918\nsamples = 3\nvalue = [0, 0, 2, 0, 0, 1, 0, 0, 0, 0, 0, 0, 0]"] ;
454 -> 462 ;
463 [label="entropy = 0.0\nsamples = 2\nvalue = [0, 0, 2, 0, 0, 0, 0, 0, 0, 0, 0, 0, 0]"] ;
462 -> 463 ;
464 [label="entropy = 0.0\nsamples = 1\nvalue = [0, 0, 0, 0, 0, 1, 0, 0, 0, 0, 0, 0, 0]"] ;
462 -> 464 ;
465 [label="X[3] <= -78.75\nentropy = 1.698\nsamples = 486\nvalue = [243, 170, 41, 8, 18, 4, 1, 0, 1, 0, 0, 0, 0]"] ;
1 -> 465 ;
466 [label="X[0] <= -58.5\nentropy = 1.47\nsamples = 163\nvalue = [111, 30, 7, 2, 10, 2, 0, 0, 1, 0, 0, 0, 0]"] ;
465 -> 466 ;
467 [label="X[0] <= -79.75\nentropy = 1.289\nsamples = 150\nvalue = [108, 26, 7, 1, 7, 0, 0, 0, 1, 0, 0, 0, 0]"] ;
466 -> 467 ;
468 [label="X[3] <= -80.5\nentropy = 1.924\nsamples = 14\nvalue = [5, 3, 2, 0, 4, 0, 0, 0, 0, 0, 0, 0, 0]"] ;
467 -> 468 ;
469 [label="X[12] <= -75.0\nentropy = 1.379\nsamples = 7\nvalue = [4, 2, 1, 0, 0, 0, 0, 0, 0, 0, 0, 0, 0]"] ;
468 -> 469 ;
470 [label="X[4] <= -38.0\nentropy = 0.918\nsamples = 3\nvalue = [1, 2, 0, 0, 0, 0, 0, 0, 0, 0, 0, 0, 0]"] ;
469 -> 470 ;
471 [label="entropy = 0.0\nsamples = 1\nvalue = [1, 0, 0, 0, 0, 0, 0, 0, 0, 0, 0, 0, 0]"] ;
470 -> 471 ;
472 [label="entropy = 0.0\nsamples = 2\nvalue = [0, 2, 0, 0, 0, 0, 0, 0, 0, 0, 0, 0, 0]"] ;
470 -> 472 ;
473 [label="X[0] <= -81.25\nentropy = 0.811\nsamples = 4\nvalue = [3, 0, 1, 0, 0, 0, 0, 0, 0, 0, 0, 0, 0]"] ;
469 -> 473 ;
474 [label="entropy = 0.0\nsamples = 2\nvalue = [2, 0, 0, 0, 0, 0, 0, 0, 0, 0, 0, 0, 0]"] ;
473 -> 474 ;
475 [label="X[12] <= -35.5\nentropy = 1.0\nsamples = 2\nvalue = [1, 0, 1, 0, 0, 0, 0, 0, 0, 0, 0, 0, 0]"] ;
473 -> 475 ;
476 [label="entropy = 0.0\nsamples = 1\nvalue = [0, 0, 1, 0, 0, 0, 0, 0, 0, 0, 0, 0, 0]"] ;
475 -> 476 ;
477 [label="entropy = 0.0\nsamples = 1\nvalue = [1, 0, 0, 0, 0, 0, 0, 0, 0, 0, 0, 0, 0]"] ;
475 -> 477 ;
478 [label="X[0] <= -86.5\nentropy = 1.664\nsamples = 7\nvalue = [1, 1, 1, 0, 4, 0, 0, 0, 0, 0, 0, 0, 0]"] ;
468 -> 478 ;
479 [label="entropy = 0.0\nsamples = 1\nvalue = [0, 0, 1, 0, 0, 0, 0, 0, 0, 0, 0, 0, 0]"] ;
478 -> 479 ;
480 [label="X[12] <= -78.0\nentropy = 1.252\nsamples = 6\nvalue = [1, 1, 0, 0, 4, 0, 0, 0, 0, 0, 0, 0, 0]"] ;
478 -> 480 ;
481 [label="X[12] <= -79.5\nentropy = 1.585\nsamples = 3\nvalue = [1, 1, 0, 0, 1, 0, 0, 0, 0, 0, 0, 0, 0]"] ;
480 -> 481 ;
482 [label="X[0] <= -80.5\nentropy = 1.0\nsamples = 2\nvalue = [0, 1, 0, 0, 1, 0, 0, 0, 0, 0, 0, 0, 0]"] ;
481 -> 482 ;
483 [label="entropy = 0.0\nsamples = 1\nvalue = [0, 0, 0, 0, 1, 0, 0, 0, 0, 0, 0, 0, 0]"] ;
482 -> 483 ;
484 [label="entropy = 0.0\nsamples = 1\nvalue = [0, 1, 0, 0, 0, 0, 0, 0, 0, 0, 0, 0, 0]"] ;
482 -> 484 ;
485 [label="entropy = 0.0\nsamples = 1\nvalue = [1, 0, 0, 0, 0, 0, 0, 0, 0, 0, 0, 0, 0]"] ;
481 -> 485 ;
486 [label="entropy = 0.0\nsamples = 3\nvalue = [0, 0, 0, 0, 3, 0, 0, 0, 0, 0, 0, 0, 0]"] ;
480 -> 486 ;
487 [label="X[3] <= -79.25\nentropy = 1.138\nsamples = 136\nvalue = [103, 23, 5, 1, 3, 0, 0, 0, 1, 0, 0, 0, 0]"] ;
467 -> 487 ;
488 [label="X[0] <= -73.5\nentropy = 1.112\nsamples = 90\nvalue = [68, 15, 5, 0, 1, 0, 0, 0, 1, 0, 0, 0, 0]"] ;
487 -> 488 ;
489 [label="X[12] <= -71.0\nentropy = 1.263\nsamples = 55\nvalue = [40, 8, 5, 0, 1, 0, 0, 0, 1, 0, 0, 0, 0]"] ;
488 -> 489 ;
490 [label="X[3] <= -80.5\nentropy = 0.97\nsamples = 36\nvalue = [30, 2, 2, 0, 1, 0, 0, 0, 1, 0, 0, 0, 0]"] ;
489 -> 490 ;
491 [label="X[3] <= -82.5\nentropy = 0.482\nsamples = 25\nvalue = [23, 0, 0, 0, 1, 0, 0, 0, 1, 0, 0, 0, 0]"] ;
490 -> 491 ;
492 [label="X[4] <= -37.5\nentropy = 0.918\nsamples = 3\nvalue = [2, 0, 0, 0, 0, 0, 0, 0, 1, 0, 0, 0, 0]"] ;
491 -> 492 ;
493 [label="entropy = 0.0\nsamples = 2\nvalue = [2, 0, 0, 0, 0, 0, 0, 0, 0, 0, 0, 0, 0]"] ;
492 -> 493 ;
494 [label="entropy = 0.0\nsamples = 1\nvalue = [0, 0, 0, 0, 0, 0, 0, 0, 1, 0, 0, 0, 0]"] ;
492 -> 494 ;
495 [label="X[12] <= -75.25\nentropy = 0.267\nsamples = 22\nvalue = [21, 0, 0, 0, 1, 0, 0, 0, 0, 0, 0, 0, 0]"] ;
491 -> 495 ;
496 [label="X[12] <= -76.25\nentropy = 0.503\nsamples = 9\nvalue = [8, 0, 0, 0, 1, 0, 0, 0, 0, 0, 0, 0, 0]"] ;
495 -> 496 ;
497 [label="entropy = 0.0\nsamples = 8\nvalue = [8, 0, 0, 0, 0, 0, 0, 0, 0, 0, 0, 0, 0]"] ;
496 -> 497 ;
498 [label="entropy = 0.0\nsamples = 1\nvalue = [0, 0, 0, 0, 1, 0, 0, 0, 0, 0, 0, 0, 0]"] ;
496 -> 498 ;
499 [label="entropy = 0.0\nsamples = 13\nvalue = [13, 0, 0, 0, 0, 0, 0, 0, 0, 0, 0, 0, 0]"] ;
495 -> 499 ;
500 [label="X[3] <= -79.75\nentropy = 1.309\nsamples = 11\nvalue = [7, 2, 2, 0, 0, 0, 0, 0, 0, 0, 0, 0, 0]"] ;
490 -> 500 ;
501 [label="X[0] <= -76.75\nentropy = 1.157\nsamples = 10\nvalue = [7, 2, 1, 0, 0, 0, 0, 0, 0, 0, 0, 0, 0]"] ;
500 -> 501 ;
502 [label="X[0] <= -77.75\nentropy = 0.722\nsamples = 5\nvalue = [4, 0, 1, 0, 0, 0, 0, 0, 0, 0, 0, 0, 0]"] ;
501 -> 502 ;
503 [label="X[0] <= -78.75\nentropy = 1.0\nsamples = 2\nvalue = [1, 0, 1, 0, 0, 0, 0, 0, 0, 0, 0, 0, 0]"] ;
502 -> 503 ;
504 [label="entropy = 0.0\nsamples = 1\nvalue = [1, 0, 0, 0, 0, 0, 0, 0, 0, 0, 0, 0, 0]"] ;
503 -> 504 ;
505 [label="entropy = 0.0\nsamples = 1\nvalue = [0, 0, 1, 0, 0, 0, 0, 0, 0, 0, 0, 0, 0]"] ;
503 -> 505 ;
506 [label="entropy = 0.0\nsamples = 3\nvalue = [3, 0, 0, 0, 0, 0, 0, 0, 0, 0, 0, 0, 0]"] ;
502 -> 506 ;
507 [label="X[0] <= -74.75\nentropy = 0.971\nsamples = 5\nvalue = [3, 2, 0, 0, 0, 0, 0, 0, 0, 0, 0, 0, 0]"] ;
501 -> 507 ;
508 [label="X[12] <= -77.5\nentropy = 1.0\nsamples = 4\nvalue = [2, 2, 0, 0, 0, 0, 0, 0, 0, 0, 0, 0, 0]"] ;
507 -> 508 ;
509 [label="X[0] <= -76.0\nentropy = 0.918\nsamples = 3\nvalue = [1, 2, 0, 0, 0, 0, 0, 0, 0, 0, 0, 0, 0]"] ;
508 -> 509 ;
510 [label="entropy = 0.0\nsamples = 1\nvalue = [0, 1, 0, 0, 0, 0, 0, 0, 0, 0, 0, 0, 0]"] ;
509 -> 510 ;
511 [label="X[0] <= -75.25\nentropy = 1.0\nsamples = 2\nvalue = [1, 1, 0, 0, 0, 0, 0, 0, 0, 0, 0, 0, 0]"] ;
509 -> 511 ;
512 [label="entropy = 0.0\nsamples = 1\nvalue = [1, 0, 0, 0, 0, 0, 0, 0, 0, 0, 0, 0, 0]"] ;
511 -> 512 ;
513 [label="entropy = 0.0\nsamples = 1\nvalue = [0, 1, 0, 0, 0, 0, 0, 0, 0, 0, 0, 0, 0]"] ;
511 -> 513 ;
514 [label="entropy = 0.0\nsamples = 1\nvalue = [1, 0, 0, 0, 0, 0, 0, 0, 0, 0, 0, 0, 0]"] ;
508 -> 514 ;
515 [label="entropy = 0.0\nsamples = 1\nvalue = [1, 0, 0, 0, 0, 0, 0, 0, 0, 0, 0, 0, 0]"] ;
507 -> 515 ;
516 [label="entropy = 0.0\nsamples = 1\nvalue = [0, 0, 1, 0, 0, 0, 0, 0, 0, 0, 0, 0, 0]"] ;
500 -> 516 ;
517 [label="X[0] <= -75.75\nentropy = 1.433\nsamples = 19\nvalue = [10, 6, 3, 0, 0, 0, 0, 0, 0, 0, 0, 0, 0]"] ;
489 -> 517 ;
518 [label="X[1] <= -74.75\nentropy = 0.985\nsamples = 14\nvalue = [8, 6, 0, 0, 0, 0, 0, 0, 0, 0, 0, 0, 0]"] ;
517 -> 518 ;
519 [label="entropy = 0.0\nsamples = 3\nvalue = [3, 0, 0, 0, 0, 0, 0, 0, 0, 0, 0, 0, 0]"] ;
518 -> 519 ;
520 [label="X[0] <= -76.75\nentropy = 0.994\nsamples = 11\nvalue = [5, 6, 0, 0, 0, 0, 0, 0, 0, 0, 0, 0, 0]"] ;
518 -> 520 ;
521 [label="X[0] <= -79.25\nentropy = 0.918\nsamples = 9\nvalue = [3, 6, 0, 0, 0, 0, 0, 0, 0, 0, 0, 0, 0]"] ;
520 -> 521 ;
522 [label="entropy = 0.0\nsamples = 1\nvalue = [1, 0, 0, 0, 0, 0, 0, 0, 0, 0, 0, 0, 0]"] ;
521 -> 522 ;
523 [label="X[0] <= -78.5\nentropy = 0.811\nsamples = 8\nvalue = [2, 6, 0, 0, 0, 0, 0, 0, 0, 0, 0, 0, 0]"] ;
521 -> 523 ;
524 [label="entropy = 0.0\nsamples = 3\nvalue = [0, 3, 0, 0, 0, 0, 0, 0, 0, 0, 0, 0, 0]"] ;
523 -> 524 ;
525 [label="X[0] <= -77.5\nentropy = 0.971\nsamples = 5\nvalue = [2, 3, 0, 0, 0, 0, 0, 0, 0, 0, 0, 0, 0]"] ;
523 -> 525 ;
526 [label="entropy = 0.0\nsamples = 1\nvalue = [1, 0, 0, 0, 0, 0, 0, 0, 0, 0, 0, 0, 0]"] ;
525 -> 526 ;
527 [label="X[3] <= -81.5\nentropy = 0.811\nsamples = 4\nvalue = [1, 3, 0, 0, 0, 0, 0, 0, 0, 0, 0, 0, 0]"] ;
525 -> 527 ;
528 [label="X[1] <= -70.25\nentropy = 1.0\nsamples = 2\nvalue = [1, 1, 0, 0, 0, 0, 0, 0, 0, 0, 0, 0, 0]"] ;
527 -> 528 ;
529 [label="entropy = 0.0\nsamples = 1\nvalue = [0, 1, 0, 0, 0, 0, 0, 0, 0, 0, 0, 0, 0]"] ;
528 -> 529 ;
530 [label="entropy = 0.0\nsamples = 1\nvalue = [1, 0, 0, 0, 0, 0, 0, 0, 0, 0, 0, 0, 0]"] ;
528 -> 530 ;
531 [label="entropy = 0.0\nsamples = 2\nvalue = [0, 2, 0, 0, 0, 0, 0, 0, 0, 0, 0, 0, 0]"] ;
527 -> 531 ;
532 [label="entropy = 0.0\nsamples = 2\nvalue = [2, 0, 0, 0, 0, 0, 0, 0, 0, 0, 0, 0, 0]"] ;
520 -> 532 ;
533 [label="X[0] <= -74.25\nentropy = 0.971\nsamples = 5\nvalue = [2, 0, 3, 0, 0, 0, 0, 0, 0, 0, 0, 0, 0]"] ;
517 -> 533 ;
534 [label="X[0] <= -74.75\nentropy = 0.918\nsamples = 3\nvalue = [2, 0, 1, 0, 0, 0, 0, 0, 0, 0, 0, 0, 0]"] ;
533 -> 534 ;
535 [label="X[3] <= -80.5\nentropy = 1.0\nsamples = 2\nvalue = [1, 0, 1, 0, 0, 0, 0, 0, 0, 0, 0, 0, 0]"] ;
534 -> 535 ;
536 [label="entropy = 0.0\nsamples = 1\nvalue = [0, 0, 1, 0, 0, 0, 0, 0, 0, 0, 0, 0, 0]"] ;
535 -> 536 ;
537 [label="entropy = 0.0\nsamples = 1\nvalue = [1, 0, 0, 0, 0, 0, 0, 0, 0, 0, 0, 0, 0]"] ;
535 -> 537 ;
538 [label="entropy = 0.0\nsamples = 1\nvalue = [1, 0, 0, 0, 0, 0, 0, 0, 0, 0, 0, 0, 0]"] ;
534 -> 538 ;
539 [label="entropy = 0.0\nsamples = 2\nvalue = [0, 0, 2, 0, 0, 0, 0, 0, 0, 0, 0, 0, 0]"] ;
533 -> 539 ;
540 [label="X[1] <= -38.5\nentropy = 0.722\nsamples = 35\nvalue = [28, 7, 0, 0, 0, 0, 0, 0, 0, 0, 0, 0, 0]"] ;
488 -> 540 ;
541 [label="entropy = 0.0\nsamples = 7\nvalue = [7, 0, 0, 0, 0, 0, 0, 0, 0, 0, 0, 0, 0]"] ;
540 -> 541 ;
542 [label="X[12] <= -79.25\nentropy = 0.811\nsamples = 28\nvalue = [21, 7, 0, 0, 0, 0, 0, 0, 0, 0, 0, 0, 0]"] ;
540 -> 542 ;
543 [label="entropy = 0.0\nsamples = 7\nvalue = [7, 0, 0, 0, 0, 0, 0, 0, 0, 0, 0, 0, 0]"] ;
542 -> 543 ;
544 [label="X[0] <= -67.75\nentropy = 0.918\nsamples = 21\nvalue = [14, 7, 0, 0, 0, 0, 0, 0, 0, 0, 0, 0, 0]"] ;
542 -> 544 ;
545 [label="X[12] <= -69.5\nentropy = 0.75\nsamples = 14\nvalue = [11, 3, 0, 0, 0, 0, 0, 0, 0, 0, 0, 0, 0]"] ;
544 -> 545 ;
546 [label="X[0] <= -72.125\nentropy = 0.845\nsamples = 11\nvalue = [8, 3, 0, 0, 0, 0, 0, 0, 0, 0, 0, 0, 0]"] ;
545 -> 546 ;
547 [label="X[12] <= -74.5\nentropy = 0.918\nsamples = 3\nvalue = [1, 2, 0, 0, 0, 0, 0, 0, 0, 0, 0, 0, 0]"] ;
546 -> 547 ;
548 [label="entropy = 0.0\nsamples = 2\nvalue = [0, 2, 0, 0, 0, 0, 0, 0, 0, 0, 0, 0, 0]"] ;
547 -> 548 ;
549 [label="entropy = 0.0\nsamples = 1\nvalue = [1, 0, 0, 0, 0, 0, 0, 0, 0, 0, 0, 0, 0]"] ;
547 -> 549 ;
550 [label="X[12] <= -71.5\nentropy = 0.544\nsamples = 8\nvalue = [7, 1, 0, 0, 0, 0, 0, 0, 0, 0, 0, 0, 0]"] ;
546 -> 550 ;
551 [label="entropy = 0.0\nsamples = 7\nvalue = [7, 0, 0, 0, 0, 0, 0, 0, 0, 0, 0, 0, 0]"] ;
550 -> 551 ;
552 [label="entropy = 0.0\nsamples = 1\nvalue = [0, 1, 0, 0, 0, 0, 0, 0, 0, 0, 0, 0, 0]"] ;
550 -> 552 ;
553 [label="entropy = 0.0\nsamples = 3\nvalue = [3, 0, 0, 0, 0, 0, 0, 0, 0, 0, 0, 0, 0]"] ;
545 -> 553 ;
554 [label="X[0] <= -67.25\nentropy = 0.985\nsamples = 7\nvalue = [3, 4, 0, 0, 0, 0, 0, 0, 0, 0, 0, 0, 0]"] ;
544 -> 554 ;
555 [label="entropy = 0.0\nsamples = 1\nvalue = [0, 1, 0, 0, 0, 0, 0, 0, 0, 0, 0, 0, 0]"] ;
554 -> 555 ;
556 [label="X[0] <= -66.5\nentropy = 1.0\nsamples = 6\nvalue = [3, 3, 0, 0, 0, 0, 0, 0, 0, 0, 0, 0, 0]"] ;
554 -> 556 ;
557 [label="entropy = 0.0\nsamples = 1\nvalue = [1, 0, 0, 0, 0, 0, 0, 0, 0, 0, 0, 0, 0]"] ;
556 -> 557 ;
558 [label="X[3] <= -80.5\nentropy = 0.971\nsamples = 5\nvalue = [2, 3, 0, 0, 0, 0, 0, 0, 0, 0, 0, 0, 0]"] ;
556 -> 558 ;
559 [label="X[0] <= -65.0\nentropy = 0.918\nsamples = 3\nvalue = [2, 1, 0, 0, 0, 0, 0, 0, 0, 0, 0, 0, 0]"] ;
558 -> 559 ;
560 [label="entropy = 0.0\nsamples = 1\nvalue = [0, 1, 0, 0, 0, 0, 0, 0, 0, 0, 0, 0, 0]"] ;
559 -> 560 ;
561 [label="entropy = 0.0\nsamples = 2\nvalue = [2, 0, 0, 0, 0, 0, 0, 0, 0, 0, 0, 0, 0]"] ;
559 -> 561 ;
562 [label="entropy = 0.0\nsamples = 2\nvalue = [0, 2, 0, 0, 0, 0, 0, 0, 0, 0, 0, 0, 0]"] ;
558 -> 562 ;
563 [label="X[12] <= -66.5\nentropy = 1.056\nsamples = 46\nvalue = [35, 8, 0, 1, 2, 0, 0, 0, 0, 0, 0, 0, 0]"] ;
487 -> 563 ;
564 [label="X[12] <= -71.0\nentropy = 1.104\nsamples = 33\nvalue = [23, 8, 0, 0, 2, 0, 0, 0, 0, 0, 0, 0, 0]"] ;
563 -> 564 ;
565 [label="X[12] <= -78.25\nentropy = 0.999\nsamples = 32\nvalue = [23, 8, 0, 0, 1, 0, 0, 0, 0, 0, 0, 0, 0]"] ;
564 -> 565 ;
566 [label="X[12] <= -78.75\nentropy = 0.986\nsamples = 9\nvalue = [7, 1, 0, 0, 1, 0, 0, 0, 0, 0, 0, 0, 0]"] ;
565 -> 566 ;
567 [label="X[0] <= -75.5\nentropy = 0.544\nsamples = 8\nvalue = [7, 1, 0, 0, 0, 0, 0, 0, 0, 0, 0, 0, 0]"] ;
566 -> 567 ;
568 [label="X[0] <= -77.5\nentropy = 0.918\nsamples = 3\nvalue = [2, 1, 0, 0, 0, 0, 0, 0, 0, 0, 0, 0, 0]"] ;
567 -> 568 ;
569 [label="entropy = 0.0\nsamples = 2\nvalue = [2, 0, 0, 0, 0, 0, 0, 0, 0, 0, 0, 0, 0]"] ;
568 -> 569 ;
570 [label="entropy = 0.0\nsamples = 1\nvalue = [0, 1, 0, 0, 0, 0, 0, 0, 0, 0, 0, 0, 0]"] ;
568 -> 570 ;
571 [label="entropy = 0.0\nsamples = 5\nvalue = [5, 0, 0, 0, 0, 0, 0, 0, 0, 0, 0, 0, 0]"] ;
567 -> 571 ;
572 [label="entropy = 0.0\nsamples = 1\nvalue = [0, 0, 0, 0, 1, 0, 0, 0, 0, 0, 0, 0, 0]"] ;
566 -> 572 ;
573 [label="X[0] <= -76.25\nentropy = 0.887\nsamples = 23\nvalue = [16, 7, 0, 0, 0, 0, 0, 0, 0, 0, 0, 0, 0]"] ;
565 -> 573 ;
574 [label="entropy = 0.0\nsamples = 4\nvalue = [4, 0, 0, 0, 0, 0, 0, 0, 0, 0, 0, 0, 0]"] ;
573 -> 574 ;
575 [label="X[0] <= -67.5\nentropy = 0.949\nsamples = 19\nvalue = [12, 7, 0, 0, 0, 0, 0, 0, 0, 0, 0, 0, 0]"] ;
573 -> 575 ;
576 [label="X[12] <= -77.75\nentropy = 0.989\nsamples = 16\nvalue = [9, 7, 0, 0, 0, 0, 0, 0, 0, 0, 0, 0, 0]"] ;
575 -> 576 ;
577 [label="X[7] <= -38.5\nentropy = 0.918\nsamples = 6\nvalue = [2, 4, 0, 0, 0, 0, 0, 0, 0, 0, 0, 0, 0]"] ;
576 -> 577 ;
578 [label="entropy = 0.0\nsamples = 1\nvalue = [1, 0, 0, 0, 0, 0, 0, 0, 0, 0, 0, 0, 0]"] ;
577 -> 578 ;
579 [label="X[0] <= -74.5\nentropy = 0.722\nsamples = 5\nvalue = [1, 4, 0, 0, 0, 0, 0, 0, 0, 0, 0, 0, 0]"] ;
577 -> 579 ;
580 [label="entropy = 0.0\nsamples = 2\nvalue = [0, 2, 0, 0, 0, 0, 0, 0, 0, 0, 0, 0, 0]"] ;
579 -> 580 ;
581 [label="X[0] <= -71.0\nentropy = 0.918\nsamples = 3\nvalue = [1, 2, 0, 0, 0, 0, 0, 0, 0, 0, 0, 0, 0]"] ;
579 -> 581 ;
582 [label="entropy = 1.0\nsamples = 2\nvalue = [1, 1, 0, 0, 0, 0, 0, 0, 0, 0, 0, 0, 0]"] ;
581 -> 582 ;
583 [label="entropy = 0.0\nsamples = 1\nvalue = [0, 1, 0, 0, 0, 0, 0, 0, 0, 0, 0, 0, 0]"] ;
581 -> 583 ;
584 [label="X[12] <= -76.5\nentropy = 0.881\nsamples = 10\nvalue = [7, 3, 0, 0, 0, 0, 0, 0, 0, 0, 0, 0, 0]"] ;
576 -> 584 ;
585 [label="entropy = 0.0\nsamples = 2\nvalue = [2, 0, 0, 0, 0, 0, 0, 0, 0, 0, 0, 0, 0]"] ;
584 -> 585 ;
586 [label="X[0] <= -73.25\nentropy = 0.954\nsamples = 8\nvalue = [5, 3, 0, 0, 0, 0, 0, 0, 0, 0, 0, 0, 0]"] ;
584 -> 586 ;
587 [label="X[12] <= -75.5\nentropy = 0.65\nsamples = 6\nvalue = [5, 1, 0, 0, 0, 0, 0, 0, 0, 0, 0, 0, 0]"] ;
586 -> 587 ;
588 [label="X[0] <= -74.75\nentropy = 1.0\nsamples = 2\nvalue = [1, 1, 0, 0, 0, 0, 0, 0, 0, 0, 0, 0, 0]"] ;
587 -> 588 ;
589 [label="entropy = 0.0\nsamples = 1\nvalue = [0, 1, 0, 0, 0, 0, 0, 0, 0, 0, 0, 0, 0]"] ;
588 -> 589 ;
590 [label="entropy = 0.0\nsamples = 1\nvalue = [1, 0, 0, 0, 0, 0, 0, 0, 0, 0, 0, 0, 0]"] ;
588 -> 590 ;
591 [label="entropy = 0.0\nsamples = 4\nvalue = [4, 0, 0, 0, 0, 0, 0, 0, 0, 0, 0, 0, 0]"] ;
587 -> 591 ;
592 [label="entropy = 0.0\nsamples = 2\nvalue = [0, 2, 0, 0, 0, 0, 0, 0, 0, 0, 0, 0, 0]"] ;
586 -> 592 ;
593 [label="entropy = 0.0\nsamples = 3\nvalue = [3, 0, 0, 0, 0, 0, 0, 0, 0, 0, 0, 0, 0]"] ;
575 -> 593 ;
594 [label="entropy = 0.0\nsamples = 1\nvalue = [0, 0, 0, 0, 1, 0, 0, 0, 0, 0, 0, 0, 0]"] ;
564 -> 594 ;
595 [label="X[0] <= -73.75\nentropy = 0.391\nsamples = 13\nvalue = [12, 0, 0, 1, 0, 0, 0, 0, 0, 0, 0, 0, 0]"] ;
563 -> 595 ;
596 [label="X[0] <= -74.5\nentropy = 0.592\nsamples = 7\nvalue = [6, 0, 0, 1, 0, 0, 0, 0, 0, 0, 0, 0, 0]"] ;
595 -> 596 ;
597 [label="entropy = 0.0\nsamples = 5\nvalue = [5, 0, 0, 0, 0, 0, 0, 0, 0, 0, 0, 0, 0]"] ;
596 -> 597 ;
598 [label="X[12] <= -31.5\nentropy = 1.0\nsamples = 2\nvalue = [1, 0, 0, 1, 0, 0, 0, 0, 0, 0, 0, 0, 0]"] ;
596 -> 598 ;
599 [label="entropy = 0.0\nsamples = 1\nvalue = [1, 0, 0, 0, 0, 0, 0, 0, 0, 0, 0, 0, 0]"] ;
598 -> 599 ;
600 [label="entropy = 0.0\nsamples = 1\nvalue = [0, 0, 0, 1, 0, 0, 0, 0, 0, 0, 0, 0, 0]"] ;
598 -> 600 ;
601 [label="entropy = 0.0\nsamples = 6\nvalue = [6, 0, 0, 0, 0, 0, 0, 0, 0, 0, 0, 0, 0]"] ;
595 -> 601 ;
602 [label="X[3] <= -80.5\nentropy = 2.2\nsamples = 13\nvalue = [3, 4, 0, 1, 3, 2, 0, 0, 0, 0, 0, 0, 0]"] ;
466 -> 602 ;
603 [label="X[1] <= -36.5\nentropy = 1.459\nsamples = 6\nvalue = [0, 2, 0, 1, 3, 0, 0, 0, 0, 0, 0, 0, 0]"] ;
602 -> 603 ;
604 [label="entropy = 0.0\nsamples = 2\nvalue = [0, 2, 0, 0, 0, 0, 0, 0, 0, 0, 0, 0, 0]"] ;
603 -> 604 ;
605 [label="X[7] <= -39.0\nentropy = 0.811\nsamples = 4\nvalue = [0, 0, 0, 1, 3, 0, 0, 0, 0, 0, 0, 0, 0]"] ;
603 -> 605 ;
606 [label="entropy = 0.0\nsamples = 1\nvalue = [0, 0, 0, 1, 0, 0, 0, 0, 0, 0, 0, 0, 0]"] ;
605 -> 606 ;
607 [label="entropy = 0.0\nsamples = 3\nvalue = [0, 0, 0, 0, 3, 0, 0, 0, 0, 0, 0, 0, 0]"] ;
605 -> 607 ;
608 [label="X[12] <= -77.0\nentropy = 1.557\nsamples = 7\nvalue = [3, 2, 0, 0, 0, 2, 0, 0, 0, 0, 0, 0, 0]"] ;
602 -> 608 ;
609 [label="entropy = 0.0\nsamples = 2\nvalue = [2, 0, 0, 0, 0, 0, 0, 0, 0, 0, 0, 0, 0]"] ;
608 -> 609 ;
610 [label="X[1] <= -68.25\nentropy = 1.522\nsamples = 5\nvalue = [1, 2, 0, 0, 0, 2, 0, 0, 0, 0, 0, 0, 0]"] ;
608 -> 610 ;
611 [label="entropy = 0.0\nsamples = 1\nvalue = [1, 0, 0, 0, 0, 0, 0, 0, 0, 0, 0, 0, 0]"] ;
610 -> 611 ;
612 [label="X[3] <= -79.5\nentropy = 1.0\nsamples = 4\nvalue = [0, 2, 0, 0, 0, 2, 0, 0, 0, 0, 0, 0, 0]"] ;
610 -> 612 ;
613 [label="entropy = 0.0\nsamples = 1\nvalue = [0, 0, 0, 0, 0, 1, 0, 0, 0, 0, 0, 0, 0]"] ;
612 -> 613 ;
614 [label="X[8] <= -39.0\nentropy = 0.918\nsamples = 3\nvalue = [0, 2, 0, 0, 0, 1, 0, 0, 0, 0, 0, 0, 0]"] ;
612 -> 614 ;
615 [label="entropy = 0.0\nsamples = 1\nvalue = [0, 0, 0, 0, 0, 1, 0, 0, 0, 0, 0, 0, 0]"] ;
614 -> 615 ;
616 [label="entropy = 0.0\nsamples = 2\nvalue = [0, 2, 0, 0, 0, 0, 0, 0, 0, 0, 0, 0, 0]"] ;
614 -> 616 ;
617 [label="X[12] <= -28.0\nentropy = 1.702\nsamples = 323\nvalue = [132, 140, 34, 6, 8, 2, 1, 0, 0, 0, 0, 0, 0]"] ;
465 -> 617 ;
618 [label="X[0] <= -28.0\nentropy = 1.583\nsamples = 258\nvalue = [120, 109, 16, 2, 8, 2, 1, 0, 0, 0, 0, 0, 0]"] ;
617 -> 618 ;
619 [label="X[0] <= -79.75\nentropy = 1.487\nsamples = 250\nvalue = [120, 106, 16, 2, 5, 1, 0, 0, 0, 0, 0, 0, 0]"] ;
618 -> 619 ;
620 [label="X[3] <= -75.75\nentropy = 1.739\nsamples = 40\nvalue = [13, 20, 2, 2, 3, 0, 0, 0, 0, 0, 0, 0, 0]"] ;
619 -> 620 ;
621 [label="X[12] <= -81.0\nentropy = 1.533\nsamples = 20\nvalue = [4, 12, 0, 1, 3, 0, 0, 0, 0, 0, 0, 0, 0]"] ;
620 -> 621 ;
622 [label="entropy = 0.0\nsamples = 1\nvalue = [0, 0, 0, 1, 0, 0, 0, 0, 0, 0, 0, 0, 0]"] ;
621 -> 622 ;
623 [label="X[12] <= -70.0\nentropy = 1.312\nsamples = 19\nvalue = [4, 12, 0, 0, 3, 0, 0, 0, 0, 0, 0, 0, 0]"] ;
621 -> 623 ;
624 [label="X[12] <= -77.5\nentropy = 1.224\nsamples = 18\nvalue = [4, 12, 0, 0, 2, 0, 0, 0, 0, 0, 0, 0, 0]"] ;
623 -> 624 ;
625 [label="X[3] <= -77.5\nentropy = 1.041\nsamples = 12\nvalue = [1, 9, 0, 0, 2, 0, 0, 0, 0, 0, 0, 0, 0]"] ;
624 -> 625 ;
626 [label="entropy = 0.0\nsamples = 6\nvalue = [0, 6, 0, 0, 0, 0, 0, 0, 0, 0, 0, 0, 0]"] ;
625 -> 626 ;
627 [label="X[0] <= -80.5\nentropy = 1.459\nsamples = 6\nvalue = [1, 3, 0, 0, 2, 0, 0, 0, 0, 0, 0, 0, 0]"] ;
625 -> 627 ;
628 [label="X[12] <= -78.5\nentropy = 0.918\nsamples = 3\nvalue = [1, 2, 0, 0, 0, 0, 0, 0, 0, 0, 0, 0, 0]"] ;
627 -> 628 ;
629 [label="entropy = 0.0\nsamples = 1\nvalue = [0, 1, 0, 0, 0, 0, 0, 0, 0, 0, 0, 0, 0]"] ;
628 -> 629 ;
630 [label="entropy = 1.0\nsamples = 2\nvalue = [1, 1, 0, 0, 0, 0, 0, 0, 0, 0, 0, 0, 0]"] ;
628 -> 630 ;
631 [label="X[3] <= -76.5\nentropy = 0.918\nsamples = 3\nvalue = [0, 1, 0, 0, 2, 0, 0, 0, 0, 0, 0, 0, 0]"] ;
627 -> 631 ;
632 [label="entropy = 0.0\nsamples = 2\nvalue = [0, 0, 0, 0, 2, 0, 0, 0, 0, 0, 0, 0, 0]"] ;
631 -> 632 ;
633 [label="entropy = 0.0\nsamples = 1\nvalue = [0, 1, 0, 0, 0, 0, 0, 0, 0, 0, 0, 0, 0]"] ;
631 -> 633 ;
634 [label="X[0] <= -80.5\nentropy = 1.0\nsamples = 6\nvalue = [3, 3, 0, 0, 0, 0, 0, 0, 0, 0, 0, 0, 0]"] ;
624 -> 634 ;
635 [label="entropy = 0.0\nsamples = 3\nvalue = [0, 3, 0, 0, 0, 0, 0, 0, 0, 0, 0, 0, 0]"] ;
634 -> 635 ;
636 [label="entropy = 0.0\nsamples = 3\nvalue = [3, 0, 0, 0, 0, 0, 0, 0, 0, 0, 0, 0, 0]"] ;
634 -> 636 ;
637 [label="entropy = 0.0\nsamples = 1\nvalue = [0, 0, 0, 0, 1, 0, 0, 0, 0, 0, 0, 0, 0]"] ;
623 -> 637 ;
638 [label="X[3] <= -74.25\nentropy = 1.595\nsamples = 20\nvalue = [9, 8, 2, 1, 0, 0, 0, 0, 0, 0, 0, 0, 0]"] ;
620 -> 638 ;
639 [label="X[12] <= -78.5\nentropy = 1.842\nsamples = 7\nvalue = [3, 1, 2, 1, 0, 0, 0, 0, 0, 0, 0, 0, 0]"] ;
638 -> 639 ;
640 [label="X[4] <= -36.0\nentropy = 1.0\nsamples = 2\nvalue = [0, 1, 1, 0, 0, 0, 0, 0, 0, 0, 0, 0, 0]"] ;
639 -> 640 ;
641 [label="entropy = 0.0\nsamples = 1\nvalue = [0, 0, 1, 0, 0, 0, 0, 0, 0, 0, 0, 0, 0]"] ;
640 -> 641 ;
642 [label="entropy = 0.0\nsamples = 1\nvalue = [0, 1, 0, 0, 0, 0, 0, 0, 0, 0, 0, 0, 0]"] ;
640 -> 642 ;
643 [label="X[0] <= -81.25\nentropy = 1.371\nsamples = 5\nvalue = [3, 0, 1, 1, 0, 0, 0, 0, 0, 0, 0, 0, 0]"] ;
639 -> 643 ;
644 [label="entropy = 0.0\nsamples = 2\nvalue = [2, 0, 0, 0, 0, 0, 0, 0, 0, 0, 0, 0, 0]"] ;
643 -> 644 ;
645 [label="X[12] <= -76.0\nentropy = 1.585\nsamples = 3\nvalue = [1, 0, 1, 1, 0, 0, 0, 0, 0, 0, 0, 0, 0]"] ;
643 -> 645 ;
646 [label="X[0] <= -80.5\nentropy = 1.0\nsamples = 2\nvalue = [0, 0, 1, 1, 0, 0, 0, 0, 0, 0, 0, 0, 0]"] ;
645 -> 646 ;
647 [label="entropy = 0.0\nsamples = 1\nvalue = [0, 0, 1, 0, 0, 0, 0, 0, 0, 0, 0, 0, 0]"] ;
646 -> 647 ;
648 [label="entropy = 0.0\nsamples = 1\nvalue = [0, 0, 0, 1, 0, 0, 0, 0, 0, 0, 0, 0, 0]"] ;
646 -> 648 ;
649 [label="entropy = 0.0\nsamples = 1\nvalue = [1, 0, 0, 0, 0, 0, 0, 0, 0, 0, 0, 0, 0]"] ;
645 -> 649 ;
650 [label="X[3] <= -69.5\nentropy = 0.996\nsamples = 13\nvalue = [6, 7, 0, 0, 0, 0, 0, 0, 0, 0, 0, 0, 0]"] ;
638 -> 650 ;
651 [label="X[12] <= -76.5\nentropy = 0.946\nsamples = 11\nvalue = [4, 7, 0, 0, 0, 0, 0, 0, 0, 0, 0, 0, 0]"] ;
650 -> 651 ;
652 [label="X[12] <= -77.5\nentropy = 0.985\nsamples = 7\nvalue = [4, 3, 0, 0, 0, 0, 0, 0, 0, 0, 0, 0, 0]"] ;
651 -> 652 ;
653 [label="X[0] <= -81.5\nentropy = 0.971\nsamples = 5\nvalue = [2, 3, 0, 0, 0, 0, 0, 0, 0, 0, 0, 0, 0]"] ;
652 -> 653 ;
654 [label="entropy = 0.0\nsamples = 1\nvalue = [1, 0, 0, 0, 0, 0, 0, 0, 0, 0, 0, 0, 0]"] ;
653 -> 654 ;
655 [label="X[3] <= -71.5\nentropy = 0.811\nsamples = 4\nvalue = [1, 3, 0, 0, 0, 0, 0, 0, 0, 0, 0, 0, 0]"] ;
653 -> 655 ;
656 [label="X[12] <= -78.5\nentropy = 1.0\nsamples = 2\nvalue = [1, 1, 0, 0, 0, 0, 0, 0, 0, 0, 0, 0, 0]"] ;
655 -> 656 ;
657 [label="entropy = 0.0\nsamples = 1\nvalue = [0, 1, 0, 0, 0, 0, 0, 0, 0, 0, 0, 0, 0]"] ;
656 -> 657 ;
658 [label="entropy = 0.0\nsamples = 1\nvalue = [1, 0, 0, 0, 0, 0, 0, 0, 0, 0, 0, 0, 0]"] ;
656 -> 658 ;
659 [label="entropy = 0.0\nsamples = 2\nvalue = [0, 2, 0, 0, 0, 0, 0, 0, 0, 0, 0, 0, 0]"] ;
655 -> 659 ;
660 [label="entropy = 0.0\nsamples = 2\nvalue = [2, 0, 0, 0, 0, 0, 0, 0, 0, 0, 0, 0, 0]"] ;
652 -> 660 ;
661 [label="entropy = 0.0\nsamples = 4\nvalue = [0, 4, 0, 0, 0, 0, 0, 0, 0, 0, 0, 0, 0]"] ;
651 -> 661 ;
662 [label="entropy = 0.0\nsamples = 2\nvalue = [2, 0, 0, 0, 0, 0, 0, 0, 0, 0, 0, 0, 0]"] ;
650 -> 662 ;
663 [label="X[3] <= -71.5\nentropy = 1.384\nsamples = 210\nvalue = [107, 86, 14, 0, 2, 1, 0, 0, 0, 0, 0, 0, 0]"] ;
619 -> 663 ;
664 [label="X[0] <= -75.875\nentropy = 1.282\nsamples = 177\nvalue = [98, 70, 6, 0, 2, 1, 0, 0, 0, 0, 0, 0, 0]"] ;
663 -> 664 ;
665 [label="X[12] <= -77.75\nentropy = 1.174\nsamples = 76\nvalue = [35, 39, 1, 0, 0, 1, 0, 0, 0, 0, 0, 0, 0]"] ;
664 -> 665 ;
666 [label="X[12] <= -79.25\nentropy = 1.078\nsamples = 51\nvalue = [19, 31, 1, 0, 0, 0, 0, 0, 0, 0, 0, 0, 0]"] ;
665 -> 666 ;
667 [label="X[0] <= -78.25\nentropy = 0.989\nsamples = 16\nvalue = [9, 7, 0, 0, 0, 0, 0, 0, 0, 0, 0, 0, 0]"] ;
666 -> 667 ;
668 [label="X[3] <= -75.5\nentropy = 0.65\nsamples = 6\nvalue = [5, 1, 0, 0, 0, 0, 0, 0, 0, 0, 0, 0, 0]"] ;
667 -> 668 ;
669 [label="entropy = 0.0\nsamples = 4\nvalue = [4, 0, 0, 0, 0, 0, 0, 0, 0, 0, 0, 0, 0]"] ;
668 -> 669 ;
670 [label="X[3] <= -74.5\nentropy = 1.0\nsamples = 2\nvalue = [1, 1, 0, 0, 0, 0, 0, 0, 0, 0, 0, 0, 0]"] ;
668 -> 670 ;
671 [label="entropy = 0.0\nsamples = 1\nvalue = [0, 1, 0, 0, 0, 0, 0, 0, 0, 0, 0, 0, 0]"] ;
670 -> 671 ;
672 [label="entropy = 0.0\nsamples = 1\nvalue = [1, 0, 0, 0, 0, 0, 0, 0, 0, 0, 0, 0, 0]"] ;
670 -> 672 ;
673 [label="X[0] <= -77.25\nentropy = 0.971\nsamples = 10\nvalue = [4, 6, 0, 0, 0, 0, 0, 0, 0, 0, 0, 0, 0]"] ;
667 -> 673 ;
674 [label="entropy = 0.0\nsamples = 3\nvalue = [0, 3, 0, 0, 0, 0, 0, 0, 0, 0, 0, 0, 0]"] ;
673 -> 674 ;
675 [label="X[12] <= -81.5\nentropy = 0.985\nsamples = 7\nvalue = [4, 3, 0, 0, 0, 0, 0, 0, 0, 0, 0, 0, 0]"] ;
673 -> 675 ;
676 [label="entropy = 0.0\nsamples = 2\nvalue = [0, 2, 0, 0, 0, 0, 0, 0, 0, 0, 0, 0, 0]"] ;
675 -> 676 ;
677 [label="X[0] <= -76.5\nentropy = 0.722\nsamples = 5\nvalue = [4, 1, 0, 0, 0, 0, 0, 0, 0, 0, 0, 0, 0]"] ;
675 -> 677 ;
678 [label="entropy = 0.0\nsamples = 3\nvalue = [3, 0, 0, 0, 0, 0, 0, 0, 0, 0, 0, 0, 0]"] ;
677 -> 678 ;
679 [label="X[3] <= -74.5\nentropy = 1.0\nsamples = 2\nvalue = [1, 1, 0, 0, 0, 0, 0, 0, 0, 0, 0, 0, 0]"] ;
677 -> 679 ;
680 [label="entropy = 0.0\nsamples = 1\nvalue = [1, 0, 0, 0, 0, 0, 0, 0, 0, 0, 0, 0, 0]"] ;
679 -> 680 ;
681 [label="entropy = 0.0\nsamples = 1\nvalue = [0, 1, 0, 0, 0, 0, 0, 0, 0, 0, 0, 0, 0]"] ;
679 -> 681 ;
682 [label="X[0] <= -77.25\nentropy = 1.036\nsamples = 35\nvalue = [10, 24, 1, 0, 0, 0, 0, 0, 0, 0, 0, 0, 0]"] ;
666 -> 682 ;
683 [label="X[0] <= -78.75\nentropy = 1.159\nsamples = 25\nvalue = [9, 15, 1, 0, 0, 0, 0, 0, 0, 0, 0, 0, 0]"] ;
682 -> 683 ;
684 [label="X[12] <= -78.25\nentropy = 0.918\nsamples = 15\nvalue = [5, 10, 0, 0, 0, 0, 0, 0, 0, 0, 0, 0, 0]"] ;
683 -> 684 ;
685 [label="entropy = 0.0\nsamples = 3\nvalue = [0, 3, 0, 0, 0, 0, 0, 0, 0, 0, 0, 0, 0]"] ;
684 -> 685 ;
686 [label="X[3] <= -72.5\nentropy = 0.98\nsamples = 12\nvalue = [5, 7, 0, 0, 0, 0, 0, 0, 0, 0, 0, 0, 0]"] ;
684 -> 686 ;
687 [label="X[0] <= -79.25\nentropy = 0.946\nsamples = 11\nvalue = [4, 7, 0, 0, 0, 0, 0, 0, 0, 0, 0, 0, 0]"] ;
686 -> 687 ;
688 [label="entropy = 0.0\nsamples = 1\nvalue = [1, 0, 0, 0, 0, 0, 0, 0, 0, 0, 0, 0, 0]"] ;
687 -> 688 ;
689 [label="X[7] <= -38.0\nentropy = 0.881\nsamples = 10\nvalue = [3, 7, 0, 0, 0, 0, 0, 0, 0, 0, 0, 0, 0]"] ;
687 -> 689 ;
690 [label="entropy = 0.0\nsamples = 1\nvalue = [1, 0, 0, 0, 0, 0, 0, 0, 0, 0, 0, 0, 0]"] ;
689 -> 690 ;
691 [label="X[3] <= -74.5\nentropy = 0.764\nsamples = 9\nvalue = [2, 7, 0, 0, 0, 0, 0, 0, 0, 0, 0, 0, 0]"] ;
689 -> 691 ;
692 [label="X[3] <= -75.5\nentropy = 0.863\nsamples = 7\nvalue = [2, 5, 0, 0, 0, 0, 0, 0, 0, 0, 0, 0, 0]"] ;
691 -> 692 ;
693 [label="X[3] <= -77.0\nentropy = 0.722\nsamples = 5\nvalue = [1, 4, 0, 0, 0, 0, 0, 0, 0, 0, 0, 0, 0]"] ;
692 -> 693 ;
694 [label="entropy = 0.811\nsamples = 4\nvalue = [1, 3, 0, 0, 0, 0, 0, 0, 0, 0, 0, 0, 0]"] ;
693 -> 694 ;
695 [label="entropy = 0.0\nsamples = 1\nvalue = [0, 1, 0, 0, 0, 0, 0, 0, 0, 0, 0, 0, 0]"] ;
693 -> 695 ;
696 [label="entropy = 1.0\nsamples = 2\nvalue = [1, 1, 0, 0, 0, 0, 0, 0, 0, 0, 0, 0, 0]"] ;
692 -> 696 ;
697 [label="entropy = 0.0\nsamples = 2\nvalue = [0, 2, 0, 0, 0, 0, 0, 0, 0, 0, 0, 0, 0]"] ;
691 -> 697 ;
698 [label="entropy = 0.0\nsamples = 1\nvalue = [1, 0, 0, 0, 0, 0, 0, 0, 0, 0, 0, 0, 0]"] ;
686 -> 698 ;
699 [label="X[0] <= -78.25\nentropy = 1.361\nsamples = 10\nvalue = [4, 5, 1, 0, 0, 0, 0, 0, 0, 0, 0, 0, 0]"] ;
683 -> 699 ;
700 [label="X[3] <= -77.5\nentropy = 1.0\nsamples = 2\nvalue = [0, 1, 1, 0, 0, 0, 0, 0, 0, 0, 0, 0, 0]"] ;
699 -> 700 ;
701 [label="entropy = 0.0\nsamples = 1\nvalue = [0, 0, 1, 0, 0, 0, 0, 0, 0, 0, 0, 0, 0]"] ;
700 -> 701 ;
702 [label="entropy = 0.0\nsamples = 1\nvalue = [0, 1, 0, 0, 0, 0, 0, 0, 0, 0, 0, 0, 0]"] ;
700 -> 702 ;
703 [label="X[0] <= -77.75\nentropy = 1.0\nsamples = 8\nvalue = [4, 4, 0, 0, 0, 0, 0, 0, 0, 0, 0, 0, 0]"] ;
699 -> 703 ;
704 [label="X[12] <= -78.5\nentropy = 0.985\nsamples = 7\nvalue = [3, 4, 0, 0, 0, 0, 0, 0, 0, 0, 0, 0, 0]"] ;
703 -> 704 ;
705 [label="X[3] <= -76.5\nentropy = 0.918\nsamples = 3\nvalue = [1, 2, 0, 0, 0, 0, 0, 0, 0, 0, 0, 0, 0]"] ;
704 -> 705 ;
706 [label="entropy = 0.0\nsamples = 2\nvalue = [0, 2, 0, 0, 0, 0, 0, 0, 0, 0, 0, 0, 0]"] ;
705 -> 706 ;
707 [label="entropy = 0.0\nsamples = 1\nvalue = [1, 0, 0, 0, 0, 0, 0, 0, 0, 0, 0, 0, 0]"] ;
705 -> 707 ;
708 [label="X[3] <= -76.5\nentropy = 1.0\nsamples = 4\nvalue = [2, 2, 0, 0, 0, 0, 0, 0, 0, 0, 0, 0, 0]"] ;
704 -> 708 ;
709 [label="entropy = 0.0\nsamples = 1\nvalue = [1, 0, 0, 0, 0, 0, 0, 0, 0, 0, 0, 0, 0]"] ;
708 -> 709 ;
710 [label="X[3] <= -73.5\nentropy = 0.918\nsamples = 3\nvalue = [1, 2, 0, 0, 0, 0, 0, 0, 0, 0, 0, 0, 0]"] ;
708 -> 710 ;
711 [label="entropy = 0.0\nsamples = 1\nvalue = [0, 1, 0, 0, 0, 0, 0, 0, 0, 0, 0, 0, 0]"] ;
710 -> 711 ;
712 [label="entropy = 1.0\nsamples = 2\nvalue = [1, 1, 0, 0, 0, 0, 0, 0, 0, 0, 0, 0, 0]"] ;
710 -> 712 ;
713 [label="entropy = 0.0\nsamples = 1\nvalue = [1, 0, 0, 0, 0, 0, 0, 0, 0, 0, 0, 0, 0]"] ;
703 -> 713 ;
714 [label="X[3] <= -77.25\nentropy = 0.469\nsamples = 10\nvalue = [1, 9, 0, 0, 0, 0, 0, 0, 0, 0, 0, 0, 0]"] ;
682 -> 714 ;
715 [label="X[0] <= -76.5\nentropy = 0.811\nsamples = 4\nvalue = [1, 3, 0, 0, 0, 0, 0, 0, 0, 0, 0, 0, 0]"] ;
714 -> 715 ;
716 [label="entropy = 1.0\nsamples = 2\nvalue = [1, 1, 0, 0, 0, 0, 0, 0, 0, 0, 0, 0, 0]"] ;
715 -> 716 ;
717 [label="entropy = 0.0\nsamples = 2\nvalue = [0, 2, 0, 0, 0, 0, 0, 0, 0, 0, 0, 0, 0]"] ;
715 -> 717 ;
718 [label="entropy = 0.0\nsamples = 6\nvalue = [0, 6, 0, 0, 0, 0, 0, 0, 0, 0, 0, 0, 0]"] ;
714 -> 718 ;
719 [label="X[0] <= -77.75\nentropy = 1.124\nsamples = 25\nvalue = [16, 8, 0, 0, 0, 1, 0, 0, 0, 0, 0, 0, 0]"] ;
665 -> 719 ;
720 [label="X[3] <= -74.5\nentropy = 0.994\nsamples = 11\nvalue = [5, 6, 0, 0, 0, 0, 0, 0, 0, 0, 0, 0, 0]"] ;
719 -> 720 ;
721 [label="X[12] <= -76.5\nentropy = 0.65\nsamples = 6\nvalue = [1, 5, 0, 0, 0, 0, 0, 0, 0, 0, 0, 0, 0]"] ;
720 -> 721 ;
722 [label="entropy = 0.0\nsamples = 1\nvalue = [1, 0, 0, 0, 0, 0, 0, 0, 0, 0, 0, 0, 0]"] ;
721 -> 722 ;
723 [label="entropy = 0.0\nsamples = 5\nvalue = [0, 5, 0, 0, 0, 0, 0, 0, 0, 0, 0, 0, 0]"] ;
721 -> 723 ;
724 [label="X[12] <= -76.25\nentropy = 0.722\nsamples = 5\nvalue = [4, 1, 0, 0, 0, 0, 0, 0, 0, 0, 0, 0, 0]"] ;
720 -> 724 ;
725 [label="entropy = 0.0\nsamples = 1\nvalue = [0, 1, 0, 0, 0, 0, 0, 0, 0, 0, 0, 0, 0]"] ;
724 -> 725 ;
726 [label="entropy = 0.0\nsamples = 4\nvalue = [4, 0, 0, 0, 0, 0, 0, 0, 0, 0, 0, 0, 0]"] ;
724 -> 726 ;
727 [label="X[0] <= -76.25\nentropy = 0.946\nsamples = 14\nvalue = [11, 2, 0, 0, 0, 1, 0, 0, 0, 0, 0, 0, 0]"] ;
719 -> 727 ;
728 [label="X[12] <= -69.5\nentropy = 0.503\nsamples = 9\nvalue = [8, 0, 0, 0, 0, 1, 0, 0, 0, 0, 0, 0, 0]"] ;
727 -> 728 ;
729 [label="entropy = 0.0\nsamples = 7\nvalue = [7, 0, 0, 0, 0, 0, 0, 0, 0, 0, 0, 0, 0]"] ;
728 -> 729 ;
730 [label="X[3] <= -77.25\nentropy = 1.0\nsamples = 2\nvalue = [1, 0, 0, 0, 0, 1, 0, 0, 0, 0, 0, 0, 0]"] ;
728 -> 730 ;
731 [label="entropy = 0.0\nsamples = 1\nvalue = [0, 0, 0, 0, 0, 1, 0, 0, 0, 0, 0, 0, 0]"] ;
730 -> 731 ;
732 [label="entropy = 0.0\nsamples = 1\nvalue = [1, 0, 0, 0, 0, 0, 0, 0, 0, 0, 0, 0, 0]"] ;
730 -> 732 ;
733 [label="X[3] <= -76.5\nentropy = 0.971\nsamples = 5\nvalue = [3, 2, 0, 0, 0, 0, 0, 0, 0, 0, 0, 0, 0]"] ;
727 -> 733 ;
734 [label="X[12] <= -76.0\nentropy = 0.918\nsamples = 3\nvalue = [1, 2, 0, 0, 0, 0, 0, 0, 0, 0, 0, 0, 0]"] ;
733 -> 734 ;
735 [label="entropy = 0.0\nsamples = 1\nvalue = [0, 1, 0, 0, 0, 0, 0, 0, 0, 0, 0, 0, 0]"] ;
734 -> 735 ;
736 [label="X[12] <= -74.5\nentropy = 1.0\nsamples = 2\nvalue = [1, 1, 0, 0, 0, 0, 0, 0, 0, 0, 0, 0, 0]"] ;
734 -> 736 ;
737 [label="entropy = 0.0\nsamples = 1\nvalue = [1, 0, 0, 0, 0, 0, 0, 0, 0, 0, 0, 0, 0]"] ;
736 -> 737 ;
738 [label="entropy = 0.0\nsamples = 1\nvalue = [0, 1, 0, 0, 0, 0, 0, 0, 0, 0, 0, 0, 0]"] ;
736 -> 738 ;
739 [label="entropy = 0.0\nsamples = 2\nvalue = [2, 0, 0, 0, 0, 0, 0, 0, 0, 0, 0, 0, 0]"] ;
733 -> 739 ;
740 [label="X[3] <= -75.25\nentropy = 1.274\nsamples = 101\nvalue = [63, 31, 5, 0, 2, 0, 0, 0, 0, 0, 0, 0, 0]"] ;
664 -> 740 ;
741 [label="X[0] <= -74.25\nentropy = 1.059\nsamples = 70\nvalue = [49, 18, 3, 0, 0, 0, 0, 0, 0, 0, 0, 0, 0]"] ;
740 -> 741 ;
742 [label="entropy = 0.0\nsamples = 11\nvalue = [11, 0, 0, 0, 0, 0, 0, 0, 0, 0, 0, 0, 0]"] ;
741 -> 742 ;
743 [label="X[12] <= -72.5\nentropy = 1.15\nsamples = 59\nvalue = [38, 18, 3, 0, 0, 0, 0, 0, 0, 0, 0, 0, 0]"] ;
741 -> 743 ;
744 [label="X[0] <= -68.25\nentropy = 1.203\nsamples = 53\nvalue = [32, 18, 3, 0, 0, 0, 0, 0, 0, 0, 0, 0, 0]"] ;
743 -> 744 ;
745 [label="X[12] <= -78.25\nentropy = 1.062\nsamples = 41\nvalue = [29, 10, 2, 0, 0, 0, 0, 0, 0, 0, 0, 0, 0]"] ;
744 -> 745 ;
746 [label="X[0] <= -73.75\nentropy = 0.439\nsamples = 11\nvalue = [10, 0, 1, 0, 0, 0, 0, 0, 0, 0, 0, 0, 0]"] ;
745 -> 746 ;
747 [label="X[12] <= -80.25\nentropy = 0.918\nsamples = 3\nvalue = [2, 0, 1, 0, 0, 0, 0, 0, 0, 0, 0, 0, 0]"] ;
746 -> 747 ;
748 [label="entropy = 0.0\nsamples = 2\nvalue = [2, 0, 0, 0, 0, 0, 0, 0, 0, 0, 0, 0, 0]"] ;
747 -> 748 ;
749 [label="entropy = 0.0\nsamples = 1\nvalue = [0, 0, 1, 0, 0, 0, 0, 0, 0, 0, 0, 0, 0]"] ;
747 -> 749 ;
750 [label="entropy = 0.0\nsamples = 8\nvalue = [8, 0, 0, 0, 0, 0, 0, 0, 0, 0, 0, 0, 0]"] ;
746 -> 750 ;
751 [label="X[3] <= -78.25\nentropy = 1.109\nsamples = 30\nvalue = [19, 10, 1, 0, 0, 0, 0, 0, 0, 0, 0, 0, 0]"] ;
745 -> 751 ;
752 [label="X[12] <= -76.0\nentropy = 1.0\nsamples = 2\nvalue = [1, 0, 1, 0, 0, 0, 0, 0, 0, 0, 0, 0, 0]"] ;
751 -> 752 ;
753 [label="entropy = 0.0\nsamples = 1\nvalue = [0, 0, 1, 0, 0, 0, 0, 0, 0, 0, 0, 0, 0]"] ;
752 -> 753 ;
754 [label="entropy = 0.0\nsamples = 1\nvalue = [1, 0, 0, 0, 0, 0, 0, 0, 0, 0, 0, 0, 0]"] ;
752 -> 754 ;
755 [label="X[12] <= -75.5\nentropy = 0.94\nsamples = 28\nvalue = [18, 10, 0, 0, 0, 0, 0, 0, 0, 0, 0, 0, 0]"] ;
751 -> 755 ;
756 [label="X[0] <= -69.75\nentropy = 0.845\nsamples = 22\nvalue = [16, 6, 0, 0, 0, 0, 0, 0, 0, 0, 0, 0, 0]"] ;
755 -> 756 ;
757 [label="X[0] <= -70.25\nentropy = 0.9\nsamples = 19\nvalue = [13, 6, 0, 0, 0, 0, 0, 0, 0, 0, 0, 0, 0]"] ;
756 -> 757 ;
758 [label="X[12] <= -76.5\nentropy = 0.852\nsamples = 18\nvalue = [13, 5, 0, 0, 0, 0, 0, 0, 0, 0, 0, 0, 0]"] ;
757 -> 758 ;
759 [label="X[3] <= -77.5\nentropy = 0.946\nsamples = 11\nvalue = [7, 4, 0, 0, 0, 0, 0, 0, 0, 0, 0, 0, 0]"] ;
758 -> 759 ;
760 [label="entropy = 0.0\nsamples = 3\nvalue = [3, 0, 0, 0, 0, 0, 0, 0, 0, 0, 0, 0, 0]"] ;
759 -> 760 ;
761 [label="X[0] <= -72.5\nentropy = 1.0\nsamples = 8\nvalue = [4, 4, 0, 0, 0, 0, 0, 0, 0, 0, 0, 0, 0]"] ;
759 -> 761 ;
762 [label="entropy = 0.0\nsamples = 2\nvalue = [0, 2, 0, 0, 0, 0, 0, 0, 0, 0, 0, 0, 0]"] ;
761 -> 762 ;
763 [label="X[12] <= -77.25\nentropy = 0.918\nsamples = 6\nvalue = [4, 2, 0, 0, 0, 0, 0, 0, 0, 0, 0, 0, 0]"] ;
761 -> 763 ;
764 [label="X[12] <= -77.75\nentropy = 1.0\nsamples = 4\nvalue = [2, 2, 0, 0, 0, 0, 0, 0, 0, 0, 0, 0, 0]"] ;
763 -> 764 ;
765 [label="X[0] <= -70.75\nentropy = 0.918\nsamples = 3\nvalue = [2, 1, 0, 0, 0, 0, 0, 0, 0, 0, 0, 0, 0]"] ;
764 -> 765 ;
766 [label="entropy = 1.0\nsamples = 2\nvalue = [1, 1, 0, 0, 0, 0, 0, 0, 0, 0, 0, 0, 0]"] ;
765 -> 766 ;
767 [label="entropy = 0.0\nsamples = 1\nvalue = [1, 0, 0, 0, 0, 0, 0, 0, 0, 0, 0, 0, 0]"] ;
765 -> 767 ;
768 [label="entropy = 0.0\nsamples = 1\nvalue = [0, 1, 0, 0, 0, 0, 0, 0, 0, 0, 0, 0, 0]"] ;
764 -> 768 ;
769 [label="entropy = 0.0\nsamples = 2\nvalue = [2, 0, 0, 0, 0, 0, 0, 0, 0, 0, 0, 0, 0]"] ;
763 -> 769 ;
770 [label="X[0] <= -71.5\nentropy = 0.592\nsamples = 7\nvalue = [6, 1, 0, 0, 0, 0, 0, 0, 0, 0, 0, 0, 0]"] ;
758 -> 770 ;
771 [label="entropy = 0.0\nsamples = 6\nvalue = [6, 0, 0, 0, 0, 0, 0, 0, 0, 0, 0, 0, 0]"] ;
770 -> 771 ;
772 [label="entropy = 0.0\nsamples = 1\nvalue = [0, 1, 0, 0, 0, 0, 0, 0, 0, 0, 0, 0, 0]"] ;
770 -> 772 ;
773 [label="entropy = 0.0\nsamples = 1\nvalue = [0, 1, 0, 0, 0, 0, 0, 0, 0, 0, 0, 0, 0]"] ;
757 -> 773 ;
774 [label="entropy = 0.0\nsamples = 3\nvalue = [3, 0, 0, 0, 0, 0, 0, 0, 0, 0, 0, 0, 0]"] ;
756 -> 774 ;
775 [label="X[0] <= -72.75\nentropy = 0.918\nsamples = 6\nvalue = [2, 4, 0, 0, 0, 0, 0, 0, 0, 0, 0, 0, 0]"] ;
755 -> 775 ;
776 [label="X[12] <= -74.0\nentropy = 0.918\nsamples = 3\nvalue = [2, 1, 0, 0, 0, 0, 0, 0, 0, 0, 0, 0, 0]"] ;
775 -> 776 ;
777 [label="entropy = 0.0\nsamples = 1\nvalue = [0, 1, 0, 0, 0, 0, 0, 0, 0, 0, 0, 0, 0]"] ;
776 -> 777 ;
778 [label="entropy = 0.0\nsamples = 2\nvalue = [2, 0, 0, 0, 0, 0, 0, 0, 0, 0, 0, 0, 0]"] ;
776 -> 778 ;
779 [label="entropy = 0.0\nsamples = 3\nvalue = [0, 3, 0, 0, 0, 0, 0, 0, 0, 0, 0, 0, 0]"] ;
775 -> 779 ;
780 [label="X[0] <= -66.25\nentropy = 1.189\nsamples = 12\nvalue = [3, 8, 1, 0, 0, 0, 0, 0, 0, 0, 0, 0, 0]"] ;
744 -> 780 ;
781 [label="X[0] <= -67.25\nentropy = 1.0\nsamples = 2\nvalue = [0, 1, 1, 0, 0, 0, 0, 0, 0, 0, 0, 0, 0]"] ;
780 -> 781 ;
782 [label="entropy = 0.0\nsamples = 1\nvalue = [0, 1, 0, 0, 0, 0, 0, 0, 0, 0, 0, 0, 0]"] ;
781 -> 782 ;
783 [label="entropy = 0.0\nsamples = 1\nvalue = [0, 0, 1, 0, 0, 0, 0, 0, 0, 0, 0, 0, 0]"] ;
781 -> 783 ;
784 [label="X[12] <= -78.25\nentropy = 0.881\nsamples = 10\nvalue = [3, 7, 0, 0, 0, 0, 0, 0, 0, 0, 0, 0, 0]"] ;
780 -> 784 ;
785 [label="entropy = 0.0\nsamples = 4\nvalue = [0, 4, 0, 0, 0, 0, 0, 0, 0, 0, 0, 0, 0]"] ;
784 -> 785 ;
786 [label="X[0] <= -62.5\nentropy = 1.0\nsamples = 6\nvalue = [3, 3, 0, 0, 0, 0, 0, 0, 0, 0, 0, 0, 0]"] ;
784 -> 786 ;
787 [label="X[12] <= -77.5\nentropy = 0.811\nsamples = 4\nvalue = [1, 3, 0, 0, 0, 0, 0, 0, 0, 0, 0, 0, 0]"] ;
786 -> 787 ;
788 [label="entropy = 0.0\nsamples = 1\nvalue = [1, 0, 0, 0, 0, 0, 0, 0, 0, 0, 0, 0, 0]"] ;
787 -> 788 ;
789 [label="entropy = 0.0\nsamples = 3\nvalue = [0, 3, 0, 0, 0, 0, 0, 0, 0, 0, 0, 0, 0]"] ;
787 -> 789 ;
790 [label="entropy = 0.0\nsamples = 2\nvalue = [2, 0, 0, 0, 0, 0, 0, 0, 0, 0, 0, 0, 0]"] ;
786 -> 790 ;
791 [label="entropy = 0.0\nsamples = 6\nvalue = [6, 0, 0, 0, 0, 0, 0, 0, 0, 0, 0, 0, 0]"] ;
743 -> 791 ;
792 [label="X[12] <= -77.75\nentropy = 1.554\nsamples = 31\nvalue = [14, 13, 2, 0, 2, 0, 0, 0, 0, 0, 0, 0, 0]"] ;
740 -> 792 ;
793 [label="X[0] <= -72.5\nentropy = 1.95\nsamples = 7\nvalue = [2, 2, 1, 0, 2, 0, 0, 0, 0, 0, 0, 0, 0]"] ;
792 -> 793 ;
794 [label="X[12] <= -79.5\nentropy = 1.0\nsamples = 4\nvalue = [2, 2, 0, 0, 0, 0, 0, 0, 0, 0, 0, 0, 0]"] ;
793 -> 794 ;
795 [label="entropy = 0.0\nsamples = 1\nvalue = [1, 0, 0, 0, 0, 0, 0, 0, 0, 0, 0, 0, 0]"] ;
794 -> 795 ;
796 [label="X[0] <= -73.25\nentropy = 0.918\nsamples = 3\nvalue = [1, 2, 0, 0, 0, 0, 0, 0, 0, 0, 0, 0, 0]"] ;
794 -> 796 ;
797 [label="entropy = 0.0\nsamples = 2\nvalue = [0, 2, 0, 0, 0, 0, 0, 0, 0, 0, 0, 0, 0]"] ;
796 -> 797 ;
798 [label="entropy = 0.0\nsamples = 1\nvalue = [1, 0, 0, 0, 0, 0, 0, 0, 0, 0, 0, 0, 0]"] ;
796 -> 798 ;
799 [label="X[0] <= -64.0\nentropy = 0.918\nsamples = 3\nvalue = [0, 0, 1, 0, 2, 0, 0, 0, 0, 0, 0, 0, 0]"] ;
793 -> 799 ;
800 [label="entropy = 0.0\nsamples = 2\nvalue = [0, 0, 0, 0, 2, 0, 0, 0, 0, 0, 0, 0, 0]"] ;
799 -> 800 ;
801 [label="entropy = 0.0\nsamples = 1\nvalue = [0, 0, 1, 0, 0, 0, 0, 0, 0, 0, 0, 0, 0]"] ;
799 -> 801 ;
802 [label="X[12] <= -70.5\nentropy = 1.207\nsamples = 24\nvalue = [12, 11, 1, 0, 0, 0, 0, 0, 0, 0, 0, 0, 0]"] ;
792 -> 802 ;
803 [label="X[3] <= -72.5\nentropy = 1.22\nsamples = 22\nvalue = [10, 11, 1, 0, 0, 0, 0, 0, 0, 0, 0, 0, 0]"] ;
802 -> 803 ;
804 [label="X[12] <= -75.25\nentropy = 1.248\nsamples = 16\nvalue = [6, 9, 1, 0, 0, 0, 0, 0, 0, 0, 0, 0, 0]"] ;
803 -> 804 ;
805 [label="X[0] <= -65.5\nentropy = 0.991\nsamples = 9\nvalue = [5, 4, 0, 0, 0, 0, 0, 0, 0, 0, 0, 0, 0]"] ;
804 -> 805 ;
806 [label="X[0] <= -71.5\nentropy = 1.0\nsamples = 8\nvalue = [4, 4, 0, 0, 0, 0, 0, 0, 0, 0, 0, 0, 0]"] ;
805 -> 806 ;
807 [label="X[0] <= -74.5\nentropy = 0.811\nsamples = 4\nvalue = [3, 1, 0, 0, 0, 0, 0, 0, 0, 0, 0, 0, 0]"] ;
806 -> 807 ;
808 [label="X[7] <= -37.0\nentropy = 1.0\nsamples = 2\nvalue = [1, 1, 0, 0, 0, 0, 0, 0, 0, 0, 0, 0, 0]"] ;
807 -> 808 ;
809 [label="entropy = 0.0\nsamples = 1\nvalue = [1, 0, 0, 0, 0, 0, 0, 0, 0, 0, 0, 0, 0]"] ;
808 -> 809 ;
810 [label="entropy = 0.0\nsamples = 1\nvalue = [0, 1, 0, 0, 0, 0, 0, 0, 0, 0, 0, 0, 0]"] ;
808 -> 810 ;
811 [label="entropy = 0.0\nsamples = 2\nvalue = [2, 0, 0, 0, 0, 0, 0, 0, 0, 0, 0, 0, 0]"] ;
807 -> 811 ;
812 [label="X[12] <= -76.5\nentropy = 0.811\nsamples = 4\nvalue = [1, 3, 0, 0, 0, 0, 0, 0, 0, 0, 0, 0, 0]"] ;
806 -> 812 ;
813 [label="entropy = 0.0\nsamples = 2\nvalue = [0, 2, 0, 0, 0, 0, 0, 0, 0, 0, 0, 0, 0]"] ;
812 -> 813 ;
814 [label="X[0] <= -69.5\nentropy = 1.0\nsamples = 2\nvalue = [1, 1, 0, 0, 0, 0, 0, 0, 0, 0, 0, 0, 0]"] ;
812 -> 814 ;
815 [label="entropy = 0.0\nsamples = 1\nvalue = [1, 0, 0, 0, 0, 0, 0, 0, 0, 0, 0, 0, 0]"] ;
814 -> 815 ;
816 [label="entropy = 0.0\nsamples = 1\nvalue = [0, 1, 0, 0, 0, 0, 0, 0, 0, 0, 0, 0, 0]"] ;
814 -> 816 ;
817 [label="entropy = 0.0\nsamples = 1\nvalue = [1, 0, 0, 0, 0, 0, 0, 0, 0, 0, 0, 0, 0]"] ;
805 -> 817 ;
818 [label="X[12] <= -73.5\nentropy = 1.149\nsamples = 7\nvalue = [1, 5, 1, 0, 0, 0, 0, 0, 0, 0, 0, 0, 0]"] ;
804 -> 818 ;
819 [label="X[12] <= -74.25\nentropy = 0.722\nsamples = 5\nvalue = [0, 4, 1, 0, 0, 0, 0, 0, 0, 0, 0, 0, 0]"] ;
818 -> 819 ;
820 [label="entropy = 0.0\nsamples = 2\nvalue = [0, 2, 0, 0, 0, 0, 0, 0, 0, 0, 0, 0, 0]"] ;
819 -> 820 ;
821 [label="X[0] <= -72.5\nentropy = 0.918\nsamples = 3\nvalue = [0, 2, 1, 0, 0, 0, 0, 0, 0, 0, 0, 0, 0]"] ;
819 -> 821 ;
822 [label="X[3] <= -73.5\nentropy = 1.0\nsamples = 2\nvalue = [0, 1, 1, 0, 0, 0, 0, 0, 0, 0, 0, 0, 0]"] ;
821 -> 822 ;
823 [label="entropy = 0.0\nsamples = 1\nvalue = [0, 0, 1, 0, 0, 0, 0, 0, 0, 0, 0, 0, 0]"] ;
822 -> 823 ;
824 [label="entropy = 0.0\nsamples = 1\nvalue = [0, 1, 0, 0, 0, 0, 0, 0, 0, 0, 0, 0, 0]"] ;
822 -> 824 ;
825 [label="entropy = 0.0\nsamples = 1\nvalue = [0, 1, 0, 0, 0, 0, 0, 0, 0, 0, 0, 0, 0]"] ;
821 -> 825 ;
826 [label="X[12] <= -72.5\nentropy = 1.0\nsamples = 2\nvalue = [1, 1, 0, 0, 0, 0, 0, 0, 0, 0, 0, 0, 0]"] ;
818 -> 826 ;
827 [label="entropy = 0.0\nsamples = 1\nvalue = [1, 0, 0, 0, 0, 0, 0, 0, 0, 0, 0, 0, 0]"] ;
826 -> 827 ;
828 [label="entropy = 0.0\nsamples = 1\nvalue = [0, 1, 0, 0, 0, 0, 0, 0, 0, 0, 0, 0, 0]"] ;
826 -> 828 ;
829 [label="X[12] <= -76.25\nentropy = 0.918\nsamples = 6\nvalue = [4, 2, 0, 0, 0, 0, 0, 0, 0, 0, 0, 0, 0]"] ;
803 -> 829 ;
830 [label="entropy = 0.0\nsamples = 1\nvalue = [0, 1, 0, 0, 0, 0, 0, 0, 0, 0, 0, 0, 0]"] ;
829 -> 830 ;
831 [label="X[0] <= -74.0\nentropy = 0.722\nsamples = 5\nvalue = [4, 1, 0, 0, 0, 0, 0, 0, 0, 0, 0, 0, 0]"] ;
829 -> 831 ;
832 [label="entropy = 1.0\nsamples = 2\nvalue = [1, 1, 0, 0, 0, 0, 0, 0, 0, 0, 0, 0, 0]"] ;
831 -> 832 ;
833 [label="entropy = 0.0\nsamples = 3\nvalue = [3, 0, 0, 0, 0, 0, 0, 0, 0, 0, 0, 0, 0]"] ;
831 -> 833 ;
834 [label="entropy = 0.0\nsamples = 2\nvalue = [2, 0, 0, 0, 0, 0, 0, 0, 0, 0, 0, 0, 0]"] ;
802 -> 834 ;
835 [label="X[12] <= -79.5\nentropy = 1.513\nsamples = 33\nvalue = [9, 16, 8, 0, 0, 0, 0, 0, 0, 0, 0, 0, 0]"] ;
663 -> 835 ;
836 [label="X[12] <= -81.0\nentropy = 0.811\nsamples = 4\nvalue = [0, 1, 3, 0, 0, 0, 0, 0, 0, 0, 0, 0, 0]"] ;
835 -> 836 ;
837 [label="entropy = 0.0\nsamples = 2\nvalue = [0, 0, 2, 0, 0, 0, 0, 0, 0, 0, 0, 0, 0]"] ;
836 -> 837 ;
838 [label="entropy = 1.0\nsamples = 2\nvalue = [0, 1, 1, 0, 0, 0, 0, 0, 0, 0, 0, 0, 0]"] ;
836 -> 838 ;
839 [label="X[3] <= -63.5\nentropy = 1.453\nsamples = 29\nvalue = [9, 15, 5, 0, 0, 0, 0, 0, 0, 0, 0, 0, 0]"] ;
835 -> 839 ;
840 [label="X[12] <= -76.5\nentropy = 1.383\nsamples = 26\nvalue = [7, 15, 4, 0, 0, 0, 0, 0, 0, 0, 0, 0, 0]"] ;
839 -> 840 ;
841 [label="X[3] <= -69.25\nentropy = 1.34\nsamples = 21\nvalue = [4, 13, 4, 0, 0, 0, 0, 0, 0, 0, 0, 0, 0]"] ;
840 -> 841 ;
842 [label="X[0] <= -76.0\nentropy = 0.918\nsamples = 9\nvalue = [0, 6, 3, 0, 0, 0, 0, 0, 0, 0, 0, 0, 0]"] ;
841 -> 842 ;
843 [label="entropy = 0.0\nsamples = 3\nvalue = [0, 3, 0, 0, 0, 0, 0, 0, 0, 0, 0, 0, 0]"] ;
842 -> 843 ;
844 [label="X[0] <= -63.0\nentropy = 1.0\nsamples = 6\nvalue = [0, 3, 3, 0, 0, 0, 0, 0, 0, 0, 0, 0, 0]"] ;
842 -> 844 ;
845 [label="X[12] <= -77.5\nentropy = 0.811\nsamples = 4\nvalue = [0, 1, 3, 0, 0, 0, 0, 0, 0, 0, 0, 0, 0]"] ;
844 -> 845 ;
846 [label="X[0] <= -70.5\nentropy = 0.918\nsamples = 3\nvalue = [0, 1, 2, 0, 0, 0, 0, 0, 0, 0, 0, 0, 0]"] ;
845 -> 846 ;
847 [label="X[3] <= -70.5\nentropy = 1.0\nsamples = 2\nvalue = [0, 1, 1, 0, 0, 0, 0, 0, 0, 0, 0, 0, 0]"] ;
846 -> 847 ;
848 [label="entropy = 0.0\nsamples = 1\nvalue = [0, 0, 1, 0, 0, 0, 0, 0, 0, 0, 0, 0, 0]"] ;
847 -> 848 ;
849 [label="entropy = 0.0\nsamples = 1\nvalue = [0, 1, 0, 0, 0, 0, 0, 0, 0, 0, 0, 0, 0]"] ;
847 -> 849 ;
850 [label="entropy = 0.0\nsamples = 1\nvalue = [0, 0, 1, 0, 0, 0, 0, 0, 0, 0, 0, 0, 0]"] ;
846 -> 850 ;
851 [label="entropy = 0.0\nsamples = 1\nvalue = [0, 0, 1, 0, 0, 0, 0, 0, 0, 0, 0, 0, 0]"] ;
845 -> 851 ;
852 [label="entropy = 0.0\nsamples = 2\nvalue = [0, 2, 0, 0, 0, 0, 0, 0, 0, 0, 0, 0, 0]"] ;
844 -> 852 ;
853 [label="X[3] <= -67.5\nentropy = 1.281\nsamples = 12\nvalue = [4, 7, 1, 0, 0, 0, 0, 0, 0, 0, 0, 0, 0]"] ;
841 -> 853 ;
854 [label="entropy = 0.0\nsamples = 3\nvalue = [3, 0, 0, 0, 0, 0, 0, 0, 0, 0, 0, 0, 0]"] ;
853 -> 854 ;
855 [label="X[0] <= -76.5\nentropy = 0.986\nsamples = 9\nvalue = [1, 7, 1, 0, 0, 0, 0, 0, 0, 0, 0, 0, 0]"] ;
853 -> 855 ;
856 [label="X[3] <= -66.5\nentropy = 1.0\nsamples = 2\nvalue = [1, 1, 0, 0, 0, 0, 0, 0, 0, 0, 0, 0, 0]"] ;
855 -> 856 ;
857 [label="entropy = 0.0\nsamples = 1\nvalue = [0, 1, 0, 0, 0, 0, 0, 0, 0, 0, 0, 0, 0]"] ;
856 -> 857 ;
858 [label="entropy = 0.0\nsamples = 1\nvalue = [1, 0, 0, 0, 0, 0, 0, 0, 0, 0, 0, 0, 0]"] ;
856 -> 858 ;
859 [label="X[0] <= -73.75\nentropy = 0.592\nsamples = 7\nvalue = [0, 6, 1, 0, 0, 0, 0, 0, 0, 0, 0, 0, 0]"] ;
855 -> 859 ;
860 [label="X[0] <= -75.25\nentropy = 0.918\nsamples = 3\nvalue = [0, 2, 1, 0, 0, 0, 0, 0, 0, 0, 0, 0, 0]"] ;
859 -> 860 ;
861 [label="entropy = 0.0\nsamples = 2\nvalue = [0, 2, 0, 0, 0, 0, 0, 0, 0, 0, 0, 0, 0]"] ;
860 -> 861 ;
862 [label="entropy = 0.0\nsamples = 1\nvalue = [0, 0, 1, 0, 0, 0, 0, 0, 0, 0, 0, 0, 0]"] ;
860 -> 862 ;
863 [label="entropy = 0.0\nsamples = 4\nvalue = [0, 4, 0, 0, 0, 0, 0, 0, 0, 0, 0, 0, 0]"] ;
859 -> 863 ;
864 [label="X[3] <= -69.5\nentropy = 0.971\nsamples = 5\nvalue = [3, 2, 0, 0, 0, 0, 0, 0, 0, 0, 0, 0, 0]"] ;
840 -> 864 ;
865 [label="entropy = 0.0\nsamples = 2\nvalue = [2, 0, 0, 0, 0, 0, 0, 0, 0, 0, 0, 0, 0]"] ;
864 -> 865 ;
866 [label="X[0] <= -75.75\nentropy = 0.918\nsamples = 3\nvalue = [1, 2, 0, 0, 0, 0, 0, 0, 0, 0, 0, 0, 0]"] ;
864 -> 866 ;
867 [label="entropy = 0.0\nsamples = 1\nvalue = [1, 0, 0, 0, 0, 0, 0, 0, 0, 0, 0, 0, 0]"] ;
866 -> 867 ;
868 [label="entropy = 0.0\nsamples = 2\nvalue = [0, 2, 0, 0, 0, 0, 0, 0, 0, 0, 0, 0, 0]"] ;
866 -> 868 ;
869 [label="X[0] <= -75.75\nentropy = 0.918\nsamples = 3\nvalue = [2, 0, 1, 0, 0, 0, 0, 0, 0, 0, 0, 0, 0]"] ;
839 -> 869 ;
870 [label="entropy = 0.0\nsamples = 1\nvalue = [0, 0, 1, 0, 0, 0, 0, 0, 0, 0, 0, 0, 0]"] ;
869 -> 870 ;
871 [label="entropy = 0.0\nsamples = 2\nvalue = [2, 0, 0, 0, 0, 0, 0, 0, 0, 0, 0, 0, 0]"] ;
869 -> 871 ;
872 [label="X[3] <= -77.75\nentropy = 1.811\nsamples = 8\nvalue = [0, 3, 0, 0, 3, 1, 1, 0, 0, 0, 0, 0, 0]"] ;
618 -> 872 ;
873 [label="X[12] <= -75.5\nentropy = 0.918\nsamples = 3\nvalue = [0, 0, 0, 0, 2, 0, 1, 0, 0, 0, 0, 0, 0]"] ;
872 -> 873 ;
874 [label="entropy = 0.0\nsamples = 1\nvalue = [0, 0, 0, 0, 0, 0, 1, 0, 0, 0, 0, 0, 0]"] ;
873 -> 874 ;
875 [label="entropy = 0.0\nsamples = 2\nvalue = [0, 0, 0, 0, 2, 0, 0, 0, 0, 0, 0, 0, 0]"] ;
873 -> 875 ;
876 [label="X[12] <= -81.5\nentropy = 1.371\nsamples = 5\nvalue = [0, 3, 0, 0, 1, 1, 0, 0, 0, 0, 0, 0, 0]"] ;
872 -> 876 ;
877 [label="entropy = 0.0\nsamples = 1\nvalue = [0, 0, 0, 0, 0, 1, 0, 0, 0, 0, 0, 0, 0]"] ;
876 -> 877 ;
